666 300
و 0.0011976426 -0.000502241 0.00013274475 0.0009194177 -0.0001699982 -0.00152011 -0.0014090921 0.00014151481 3.091761e-05 -0.0015819168 0.0011074542 0.0015790885 -0.0014939501 -0.0007032228 0.00020403515 0.00089549355 0.00049970835 -0.0014488675 0.0008018438 0.0011578152 -0.0013982856 -0.00096827524 -0.00011195081 0.00025124062 0.00048468035 -0.0008889924 -0.0013121772 0.0016795328 0.00041903532 -3.1567895e-05 -0.00062377116 -0.0015677824 -0.0015838349 0.0006422093 0.0002681587 0.00047228308 8.0967104e-05 0.0017913472 0.0001163683 -0.00045821816 -6.2681625e-06 0.00061722985 -0.00073765777 0.0017901919 -0.00035460576 -0.0015798701 0.00018616383 0.0015112604 -0.001126396 0.0004933958 0.00080516073 1.15879275e-05 -0.00042414633 0.0013909679 -0.0007294189 -0.00047035373 -0.0015863122 0.0013427137 -0.0015245362 0.0007767334 0.0014841388 -0.00086749176 0.00038477915 0.0002747241 -0.0007501956 -0.00065964356 0.0011562465 -0.0010275518 0.00077017833 0.00015142623 0.0019352629 0.00034981573 -0.00046897304 0.0004697385 0.0005684916 0.0010574368 -0.00016194161 -0.00062850723 0.0013930595 -0.0009917642 -0.0014589315 0.0016588247 -0.0014318076 0.00046368482 0.0006755622 -0.0012106409 -0.00012353476 -0.0010841463 -0.0008238793 0.0011324711 -0.00082218915 0.0005159043 -0.0007175686 -0.00019447834 0.001179206 -0.00020339886 9.296324e-06 0.0015503558 0.0011657035 -0.00026251367 -0.0016277804 -0.0010213852 0.0015672595 7.47148e-05 0.0013151072 0.00041774212 0.0018811707 0.00029345285 0.00057670934 0.00014243794 0.0005602874 -2.3709103e-05 0.0009031204 -0.0004537541 0.0013508992 0.0011013919 -0.00023049518 -0.000279279 0.00093410606 0.00022585505 0.0017293924 0.00017887051 -0.0008562901 -0.0009427472 -0.0008956604 -0.00048117235 0.0011000613 0.0010324528 -0.0010367638 0.0019535383 2.7716296e-05 0.0012615209 -0.001403198 0.001144133 -0.0006958981 -0.00069479196 -0.0018129611 -0.0012926236 0.00029723966 0.0004476679 0.0012546573 -0.001078189 -0.0012487547 0.00038173542 -0.001026079 -0.00037809587 -0.00067060295 -0.00014551835 0.0002878953 0.0013950298 0.00050912786 -0.00094361766 0.00032442465 8.359099e-05 0.0013117616 0.00055454037 -0.0002881435 0.0014307509 -0.0010101917 -0.0014625321 0.00084371364 0.0016983141 -0.0002485901 -0.0012409976 0.0018985578 -0.0014315635 -0.00085667375 -0.00017206385 -0.0007302929 0.00033173748 -0.00013067467 -0.00054478116 -0.00075092167 -0.00022862578 0.0012049476 -0.0002443343 0.00075493177 -0.00040752394 0.0017416269 0.00031568875 -0.0012045034 -0.00087496993 0.00075146934 0.00061418756 -0.00096333056 0.0014987459 -0.00075808243 -0.00028496227 0.000678982 7.6078155e-05 0.0007303457 -0.0007465274 0.00012113263 0.0012562489 0.0013046699 -0.0015798223 -0.00010511283 -0.00017864941 -0.0013094415 0.0018865456 -0.00085529964 0.0013683324 -0.0011503509 0.00021730237 0.00061055255 -0.0007840416 -0.0018699312 -0.00010774325 8.98523e-06 -0.00011428439 8.512182e-05 1.1065475e-05 -0.001008992 0.0018968207 -0.0012641565 0.001031287 0.00018004113 0.00097631186 -1.1968434e-05 0.00082750845 0.0015203411 -0.0004823553 -0.00030347338 -0.0006524727 -0.0008674594 -0.0012181378 -0.0011157689 -0.0008040918 -0.0010075672 0.00062576565 -0.0013400153 -0.00048539057 0.00066520745 -0.00020256818 0.00033450394 0.00016975818 -0.00096714654 4.308548e-05 -0.00067339663 -0.0017535123 0.0016215191 -0.0004546887 -0.0014676338 -0.0012202113 -0.00091354724 0.0009005802 0.0010387677 -0.001087551 -0.0015861567 -0.00093868334 -0.0014102557 -0.0005912399 -0.00066392816 -0.00073306204 0.0017018681 -0.0008266596 -0.0005589986 0.00090203085 0.0012663121 0.0011943474 -0.0012791565 0.00045302144 0.0017519126 -0.0015133879 -0.0006339536 0.0010464725 0.00022479621 -8.055672e-05 0.00046214843 0.0015301607 0.0007582495 -0.0011628709 -0.00040422878 -0.0010332684 0.00045352874 0.001501045 0.0011907811 -0.00084896665 0.00075889303 -0.0007710625 -0.00089386513 -0.0014787501 0.0011396405 0.00045142233 -0.00017990045 -0.0016033517 -0.0005797933 0.0011616024 -0.0005811318 0.0014738161 0.00076768245 0.0006346798 -0.0010152094 0.00030630064 -0.0015054814 0.00015482119 -0.0004142952 -0.00012600412 -0.0014747828 0.00086881156
که -0.0011818978 0.0014580695 0.0011467527 0.00061801425 0.00067662564 0.00022850746 0.00077521947 0.0015069192 0.0014183463 0.000956425 -9.524697e-05 0.0017245807 -0.0013923413 -0.0006345357 -0.0014497252 -0.00045448297 0.0008521936 0.0015287567 -2.782525e-05 0.000482126 -0.00135771 -0.0016712833 0.00097473065 -0.00072735833 0.0017728271 0.0006382487 0.00017241917 -0.000974766 0.0015331833 0.00026218558 0.0012896955 -0.0017102882 -0.0020254073 0.00032218432 0.00142624 9.495592e-05 -0.0016835136 5.283818e-05 0.00084231223 0.0010070512 -0.0019231497 -0.0015773571 0.00042742558 5.7607365e-05 0.00040092357 -0.0005205376 -0.0006497101 0.0009076726 -0.00050210085 -0.0012966571 0.00048656552 -0.0010541063 0.0008216484 0.0008922372 -0.00071157224 0.0010227009 0.00070102036 0.0013695211 -0.0014056158 0.001255044 0.00051955873 0.0010749187 -0.0010790292 -0.0018476166 5.095389e-05 0.00091226154 -0.0015660126 -0.00036144597 0.00015493223 0.0010458304 0.0010456215 0.0010266 0.0007455927 0.0013113521 -0.00040085928 0.0007406419 0.000897548 0.00084435934 -0.001109551 -0.0012243167 -0.000526883 -0.00073483126 -0.0010427292 0.0017432123 -0.0017216195 0.00033517487 -0.0007832076 0.0003122054 -0.0008053811 -0.0011270909 0.001306922 0.0007327937 -0.0013034767 0.0014131855 -0.00051142025 0.000967173 0.0012882962 -0.00025801026 -0.0010513769 0.00043749917 -0.0007850427 0.0015010699 0.00092721166 -0.0003152359 0.00084463693 0.00043049382 0.0008125501 0.001322945 0.0003065103 0.00037792238 -0.0007680316 0.0004798402 -0.0013171176 0.0011559223 -0.0014520407 -0.0008104653 -0.0006733835 0.001255919 0.0016724752 -0.00045103874 0.00092003023 0.0002157328 -0.00018406943 0.0007307379 0.00025269834 0.0015393991 -0.00067096937 0.00029974311 -0.0016061576 0.00073096005 -0.001499027 -0.00035538772 -0.00022487441 -0.0010695822 -0.001191726 -0.00048455244 0.0004738399 -0.0010959328 0.0014794896 -0.0012281509 -0.00035771626 -0.00044212537 0.0015149892 -0.0015195321 0.00024710107 0.0004552033 -0.0005774135 -0.0004222872 0.001678131 0.0018285612 -0.0018031258 0.0009285305 9.645731e-05 0.00045522113 0.00086481805 -0.00020784282 -3.8171427e-05 0.0012239435 -0.0012208218 -0.0017177289 0.0011688023 -0.0013290984 0.0005076714 -0.00023926423 0.0002876778 -0.0015177561 7.509225e-05 -0.0013742155 0.00047469308 -0.0014332758 -0.0006665081 -0.0010103318 9.749426e-05 0.00052496407 0.001312134 0.0009073576 -3.4703153e-05 -0.0010986268 -0.0011778007 0.0003454337 0.0013343766 0.0010515114 -0.000111035515 0.0015784808 -0.00042482 -0.0004464035 0.0006360628 -0.0017100141 0.0012424316 0.0013932731 -0.0012676475 0.0010770134 0.0011905293 0.0005349795 0.0018054052 -3.1727886e-05 0.00064427446 0.0013151362 0.0012189926 0.0010274438 0.00021828749 2.3449766e-05 0.0014208329 -0.001585701 6.1968094e-05 0.0011095997 -0.0019622399 0.00027750374 -0.0017169314 0.001332575 0.000106862266 -0.0010035685 0.00031014427 -0.0010405399 0.0010813929 2.4959114e-05 -0.0013993173 -0.0006899953 0.00095764274 0.00046336534 -0.0011395575 0.001151616 -0.0011917074 0.0007781282 -0.00091981224 0.0009391834 -7.432012e-05 0.0005737628 0.00097610784 0.00050873234 -0.00048351765 0.0007467282 0.00022862849 -0.0007936317 0.0016244209 -1.5441545e-05 -0.001235397 0.0005648308 -0.0016637775 -0.0014657665 -0.0002040572 -0.00036256417 0.0005621709 0.0012776465 -0.0015317308 0.0012794052 -0.00043670041 0.0010833198 -0.00040475713 -0.00047074127 0.00036118997 -0.0003571632 -0.0011692126 -0.00089981064 -0.0015704362 -0.0010391204 0.0013865265 0.0014656323 -0.0006580379 1.8458477e-05 3.6978545e-05 -0.00051897776 0.00153259 -0.00082127174 0.00026751746 0.0014245915 0.000807729 0.00057570956 0.00014777495 0.00069600827 -0.0004222176 -0.0011824393 0.00068093406 -0.0005606161 0.0003832354 0.000621408 0.0016124536 -0.0015557931 -0.00021504096 -0.0001768481 0.00062846096 -0.0017863613 -0.0009636553 0.0009861554 -0.0010221301 0.0010314308 0.0010457606 -0.00073345244 -0.0015730945 -0.0014764275 -0.0017347689 -0.0015753853 -0.0007383853 0.0013438215 -0.00094342075 0.00071522495 0.00037726245 -0.0004606339 -0.0020423662 0.00031503182
را 0.00068771356 0.0008964818 0.000120769895 -0.0009084262 0.0015830748 -0.0014701876 -0.0008411227 0.0006587357 0.0010284996 -0.0010791268 -0.0006799699 0.0005576189 -0.00061433006 -0.00060051645 -0.001377052 -0.0012134018 0.0012830074 -0.0011165392 -0.00011162489 0.0017612171 -0.00015297359 0.0003528962 -0.0015109788 0.0006509897 0.00030680696 0.0010875999 -0.001054875 -0.0013062806 0.00074892666 -7.1131384e-05 -0.0013847859 -0.0015438821 -0.0013252383 -0.00032425113 0.00065691 0.00061726506 -0.0016512269 0.00033416098 -1.5169712e-05 0.00023563312 0.0004977975 -0.00016928324 -0.0006376152 0.00044062236 -0.0013931587 -0.000823816 -0.0012869795 -0.0011664528 0.0009774978 0.00032878012 0.0015923607 0.0010953202 0.0006188978 -0.0006348865 0.001905891 0.00047631466 -0.00040654937 -0.00039974818 -0.0013190776 -0.0009961171 9.774458e-05 0.00081590266 3.657396e-05 -0.0017675896 0.0012371718 -0.00083662145 0.0014225597 0.0015506429 0.0003555643 0.0013843015 0.0015131359 0.00046779242 -0.0009092101 -0.0013122238 -0.000409538 -0.0008833191 0.00030948542 -0.00018600239 0.001633102 -0.001063402 0.0010676098 -0.0006816119 4.305491e-05 0.00031895845 -0.00035356628 0.0013496199 -0.0007642215 0.0012402779 0.0007418924 0.00071757514 0.0017023273 -0.0006848733 0.0010092099 0.0012177447 0.0007698526 -0.00044402538 0.0016910244 -0.0010560168 -3.1392265e-05 0.0009405897 -0.0014442535 0.0013166252 -0.0010264267 -7.6264245e-05 0.0012037433 0.0012213509 0.00074024394 0.00059871946 0.0013311398 0.0011414059 0.0010828067 -0.001298333 -0.0008709155 0.0016304265 -0.0017174683 0.00052914897 -5.1087038e-05 -0.0006411364 0.00013357773 0.00012752094 -0.00030987716 -0.00170825 6.0221842e-05 -0.0005008564 0.0007966228 -0.00048683592 -0.001065629 0.00040885023 -0.00025618507 0.0013004366 0.00051034096 -0.0004308703 -0.00013747964 0.0018917677 0.0014219268 -0.0013422641 -0.0017175913 -0.0017224292 0.00024756824 0.0009683568 0.00039261632 0.0014209342 9.779712e-06 -0.0016386053 -0.00077067077 -0.0012707427 0.00025463628 -0.0013111936 -0.0008862294 -0.00084107806 -0.0017415864 -0.00086794613 0.0009940023 0.0019090251 -0.00058274803 -0.0009332169 -0.0016712004 0.00030016075 -0.0002931757 0.00022347852 -0.0011981481 0.001817815 0.0008212618 0.0005882357 0.0013295813 -0.0006101679 -0.0017953166 0.0017705832 0.0015834295 0.0015433255 0.0010949218 0.00081622845 0.00048670662 -0.0018875736 0.00054945046 -0.00097404496 -0.00076974306 -0.0007469323 -0.0011117216 -0.00043692533 0.0012217388 -0.0017271752 0.00054703065 0.001399783 -0.00025357842 0.0010863852 -0.00132851 0.00033574904 0.00025430456 0.0015442701 -0.0005600961 -0.0001273918 0.0003148783 -0.0011044553 -0.0013010119 -0.00019053317 0.00077210844 -0.0011943995 -0.0006631301 0.0010237779 -0.000990969 -0.00013607685 -0.001070429 -0.0008700929 0.0015279809 -0.00031832975 -0.0010328616 -0.00028987086 -0.0010637183 -0.001127661 0.00063138636 -0.0008392411 0.0011343923 -0.0009935328 0.001504342 -0.001405214 -0.00040179043 -0.00077876955 -0.0010743699 -2.1197977e-05 -8.550064e-05 -0.0012830028 -0.0015307924 -0.0007374342 -0.0014418103 -0.0013657231 -0.00022336892 0.0016533621 -0.0010363349 0.0017260785 -0.00082179345 -0.0009426848 -0.00011994967 2.2102518e-06 0.0011998464 0.000521916 -0.00028818878 0.00065021514 7.194123e-06 -0.0005871996 0.0013962794 0.0010470167 -0.0016368543 -0.0014396914 -0.0015794564 -0.0014526768 -0.0017388907 0.0015832298 -0.0020932932 0.00023348715 0.00017240802 0.0014943047 -0.001483655 0.00091105455 -0.001023775 -0.0007828813 0.0016174774 0.0016537677 0.0018598298 0.00075906387 0.0011697924 -0.00014693453 0.000112520494 -8.761767e-05 0.00027873387 0.001840796 -0.00036209472 -0.00017462065 0.0007588981 4.7054316e-05 -0.00032402002 -0.00013430521 0.0011527668 -0.001024868 -0.00072108913 -0.0012580041 0.0006259327 -0.0012349553 0.0011183752 -0.00069582084 0.0006922946 -0.00082475547 0.0010956691 0.0012224873 0.0015428205 0.0011260931 2.8991735e-05 -0.0014532281 0.0010919481 -0.0011056468 -0.0007449465 -0.0011268919 -0.0020553935 -0.00025873334 0.00069590553 -0.0016201714 -0.0011151185 0.0002587731 -0.00064225646 0.00026047498
از -0.0002808567 7.692819e-05 -0.0016411933 -0.0010588075 0.0005065454 -0.0015292019 0.0011724604 0.00040557032 -0.0013848809 -0.0007263656 0.0016970881 -0.000724765 -0.0015963966 -0.0012943711 5.9209593e-05 0.00029344275 -0.000300997 -0.0016373502 -0.0009810856 0.0009181817 -0.0011854834 -0.0014952194 -0.0011444138 -0.0009259374 -0.0009778251 -0.0011215014 0.0003531899 0.00072790054 -0.0010507596 0.0009126917 0.0006923244 0.0009460361 5.8275316e-05 -0.0009065546 0.00091215025 0.0008771134 -1.1060212e-05 -0.0008886314 0.00021160522 0.0015851146 -0.0016615681 -0.00036718894 4.9158825e-05 0.0015616133 -0.00061566394 -0.0012694276 0.0013020643 -0.00053193705 -0.0005287438 0.00044633224 0.0013630465 -0.001635509 -0.0013692596 -4.4574623e-05 0.00068383093 -0.0002844203 -0.0013564907 0.0014627868 -0.0016762043 -0.0015138352 -0.0010467328 0.0006577947 -0.00040947343 -0.001605821 0.000107258384 -0.0005732841 -0.00027079016 -0.0005562048 -0.0009343371 -0.0001444815 0.00079215725 -0.0016174418 0.0003367806 0.0016379073 0.0012157598 -0.0013482673 0.0009869237 0.00066799705 -0.00033589147 0.00096934516 0.0009903309 0.0014092769 0.0012850713 0.00074219 -0.0010921335 -0.0008821729 -0.001097402 0.000153327 -0.000773009 0.0005024579 -0.0012778336 0.0014213829 0.00089875876 0.00075423927 -0.0008779762 6.976312e-05 0.000937459 -0.0010348638 0.0015747542 -0.0010826032 0.0011359876 0.0011589265 0.00043730353 0.0007959881 0.0009272771 0.0012712795 -0.0011511426 -0.0014855632 -0.00080777175 -0.0015145415 0.0015181254 -0.0015731606 -6.637339e-05 -0.00021304638 6.5854576e-05 0.00063162966 0.00078963215 0.0014062282 0.0015594009 0.00067674776 6.9827605e-05 0.0007857999 -0.0017877778 0.0002137422 -0.0005739645 -0.0006239336 0.00021549604 -0.0001614582 -0.0013954911 0.0010819143 -0.00074005296 -0.0006989794 -0.0006603997 0.0013769007 -0.00078884664 -0.0015470919 -0.00073845964 -0.0016703929 -0.00046430185 0.0008978461 0.0013624444 0.0016665759 7.629518e-06 -0.0009772705 -0.00060385355 0.00024706646 0.00021146648 -0.00088756793 -4.1821124e-05 -0.00053359545 -0.0011960578 0.00017706418 -0.0015966848 0.000988746 -0.00024532722 -0.0008467315 -0.0002685892 -0.00025891382 0.00019321173 0.0006895531 0.0014781177 -0.0005671989 -0.0016910686 -0.00024645968 0.0003328426 0.0014649174 -0.0014590102 -0.00121648 0.0007631365 -0.0016755759 -0.00023129693 7.51229e-05 -0.00013668163 0.0014818842 0.0012862635 -0.0002659118 -0.000867179 0.00066999195 0.0003070408 -0.00023078675 0.0009818921 0.00010637133 -0.00022014917 0.0005331724 0.0004028776 -0.0016695664 -0.00014684793 -0.0004195863 0.0016178751 -0.00046961376 -0.0014863933 -0.001130122 0.0012405715 8.225826e-05 -0.0015291634 -0.0015613643 0.0012804174 -0.0008657124 -0.0012292599 -0.0010786382 0.0012875629 -0.00024477017 -0.00041587482 -0.0015114491 -0.00039772363 0.0009893728 0.00023408308 -0.00046432254 0.00060730043 0.00042957594 -0.001118413 -0.0004414147 3.5987323e-05 7.5154276e-05 -0.0011444481 -0.0010933978 0.0015187628 0.0013736704 -0.00038757673 -0.0012408659 -0.0012078265 0.0010063747 0.0003892813 -0.0012028794 0.0004019498 -0.0006142228 0.0012356256 -0.00080023677 -0.0011490143 -0.0007435021 0.00017795221 -0.00027148353 3.8976257e-05 0.00044086267 0.0013738672 -0.0008082275 0.00085792475 -0.0005520887 0.0005541086 -0.00074453896 0.0003466591 0.0015398593 -0.0010022004 0.00061713497 -0.0001169676 -0.0014827965 -0.00039496526 -0.0015326147 -0.00031770003 0.00043294966 0.00039602706 -0.0008062012 0.00055446185 -0.000510736 -0.0013680926 0.001111062 -0.00015372067 0.00050211005 -0.0007646211 0.00025044198 0.0009144807 -0.0010340797 0.0016831482 0.0001170991 0.0006546434 -0.0004652119 0.0014489654 0.0014908173 0.00050340313 0.00018055922 0.0012238073 0.0003508616 0.00077310955 -0.0004694568 0.0008178453 -0.0012530574 -0.00032011094 -0.00034491296 0.0008306767 0.0010509628 0.0009898302 -0.0013076727 4.1827403e-05 0.0002021508 0.0009766907 -0.0013015326 8.062992e-05 0.00072608364 0.0012637267 -0.0014360069 -0.001395567 0.00039165604 0.0013718354 0.0013161268 -0.0005607883 0.0007395351 0.0002138299 -7.741174e-05 0.00043477217 0.00028987086
ما 0.0014151855 0.001678955 -0.00059373776 -6.1387225e-05 8.584048e-05 0.00013489739 -0.0010170315 0.00056908303 0.00045206572 0.001525618 0.001734328 -0.0012168037 0.00024268782 0.000889023 -0.0011873709 -0.00035698386 0.000770208 -0.000978126 -0.00081426575 -0.001180223 -0.0012026278 0.0005016347 -0.0015023425 0.0014650204 3.3044187e-05 -0.00073391 0.00023679399 0.0012573609 -0.0013727056 -0.001449189 0.00062529894 4.178697e-05 -0.0006671782 -0.0010828677 0.00091005786 0.00020480611 0.0007731997 0.0009885082 -0.0007147809 0.0012606147 -0.00043106868 -0.0011598648 -0.0016726302 -0.000758862 -0.00068733207 -0.0011852008 -0.0003577038 0.0004932995 0.0010842868 -0.00069576805 0.0011659482 0.0011803787 0.001417825 -0.0017187588 -0.0011316711 -0.0008330878 -0.0012039302 -0.0007625988 0.0005741097 0.00080299826 -0.0009999041 -0.0006906969 -0.0014158429 -0.0015405179 -0.0008850598 -0.0014100003 -0.0009509632 -0.0006753446 -0.0006941024 0.00021400275 0.0011385405 -7.67947e-06 -0.0005691634 -0.0010642192 0.0006191306 -0.0009770121 0.0012873514 0.0012766161 0.0011842696 -0.0013714595 -0.00075682485 -0.0003498929 0.001364896 0.0011397406 -0.001013774 7.438147e-05 0.0003282696 1.6187874e-05 0.0005215019 -0.00041927546 0.0010440457 -0.0010709396 -0.0004143429 -0.00030646072 -0.00088765926 0.00075659854 -0.0004978274 0.0015079778 0.001130638 -0.00022411223 0.0012333089 -0.00034080038 0.0013592176 0.0015497557 0.00051088363 -0.0007242803 0.001226299 0.0012118329 -0.0005765546 0.00019862487 0.00016150167 0.00067922904 0.000778007 0.0005351666 0.00084203365 -0.00043599895 -0.0007794351 0.00024429095 -0.0016213037 -0.0009499297 0.00050842826 0.00059337786 -0.0013498707 -0.001070115 -0.00047855006 -0.00035707542 0.00068400265 0.0006947586 0.001121828 0.0010577043 -0.0012540084 -0.0006657287 -0.0008195534 0.0015016065 0.0001407725 -0.0004284586 -0.001400973 -0.00077549956 0.0014146713 0.00048391946 -0.0003109535 0.0007753417 0.0012238235 -0.0017926656 -0.0014698718 0.0006578094 -0.00038462345 0.0010036465 0.00093177136 -0.00084786466 0.0005922991 0.00066599046 0.00027214026 0.00062572164 -0.00015457984 0.00042829508 -0.0017612198 0.0017561036 -0.0014948267 -0.000503644 0.0008503542 -0.0011230208 -0.0014541888 0.00029771298 0.00017636162 -0.00094995095 -0.001240799 0.001694155 0.000108504784 -4.182766e-05 0.00040587416 -2.9230188e-05 0.001271724 -0.0006109344 -0.00010870799 -0.0012278403 -0.001446983 -0.0008423224 0.0011367422 -0.0011929725 -0.00028642925 -0.000999056 -0.0015183019 -0.00077462214 -0.00048319512 0.00094894634 -0.0008650446 -0.00030032458 0.0006765919 -0.00028061398 3.34226e-05 0.00090347393 -0.00012704938 9.5030955e-05 0.0016256396 0.00042539107 -0.00090342277 -0.00029496048 -0.0005938146 -0.00047344295 0.00095725554 0.0014211776 -0.0009375933 -0.0013928909 -0.0009369712 4.2315824e-05 0.0014090993 0.00055356155 -0.0007201316 -0.00025348843 -0.0010991129 0.0011349191 0.0008198442 -0.00043688808 0.0005267403 0.0014822972 0.0007274021 -5.4064876e-05 0.00097452087 -0.0015093256 0.0008737598 0.0012083343 -0.0014280113 -0.0015994809 0.0013580831 -0.00060845783 0.00081755756 -0.0013878051 -2.8528188e-05 -0.00013227072 -0.0012235633 2.2263246e-05 0.001674043 0.0016709848 0.0013036447 0.0015724074 0.0010514722 0.0014678478 0.00037882358 -0.0012187611 0.0007999805 -0.0015116631 5.8503087e-05 -0.0005718175 -0.00047294097 0.0016409163 -0.00044716446 -0.00042193892 0.001082852 -0.00081927667 -0.0008284103 0.00039766438 0.0016211533 -0.00064398063 -0.00059473515 -0.0014160445 0.00062734896 0.0010911261 0.0017975351 0.00085459655 0.0001866222 0.0011025019 0.00114035 -0.0014425914 0.0012373311 -0.0006700738 -0.0011178167 0.00050425273 -0.00035143617 0.0007673247 -0.00030327897 0.00068705506 0.00078519137 4.9337945e-05 0.0014441618 0.0011656847 0.00057190517 -0.00039059497 0.0010532232 -0.00042225124 0.0003911743 -0.0004039751 0.00052294286 -0.00075490953 -0.0011774838 5.775876e-05 -0.0010796102 0.001306682 -0.0003153686 0.001700282 2.3812596e-05 -0.0011584299 6.6042834e-05 -0.00043993117 0.00020758239 -0.0015653246 -0.0006702026 -0.0011980426 6.858235e-05 -0.001056301
به 0.00042693573 0.001310919 -0.0005213667 0.001650472 0.0014936537 0.0014928476 0.000985491 -0.00020248836 -0.001691019 0.0010781193 -6.9489026e-05 -0.00028208832 -0.0016210964 0.00095831853 -0.00028269718 -0.00092415506 0.00037352552 -0.0017325297 0.00037719874 -0.00055404595 0.0004070779 0.00045691722 -0.0010167349 0.00041822917 0.0009133354 0.001081074 -0.00012961842 0.0007111567 -0.00082595466 -6.3045973e-06 0.0015842796 -0.0007369229 -0.0019378948 0.0015837589 -0.00050770695 -0.00086772075 -8.7754845e-05 0.00023928282 0.00067807804 0.00035097476 -0.0017435503 -0.0006311364 -0.0016459501 -5.864657e-05 0.0002350853 -0.0012560122 -0.0005234705 0.00056525355 -0.0011247045 -0.0006861347 -0.0010865083 -0.0008400993 0.00057236105 0.0014426643 0.0013115777 -0.00025301156 -0.0010467694 -0.0012346143 -0.0004265724 -0.0012021107 -0.0014191733 -0.001624182 0.0014012652 0.00096630474 -6.2150386e-05 -0.0006527474 0.00018177532 -0.00020970295 0.0016418508 0.00014480375 -0.0007641744 -0.0012504065 -0.0015322648 0.0015180908 0.0014540046 -0.00123146 0.00042624152 -0.0014771424 0.0009895148 0.0009782378 -0.00045078876 -0.0005736212 -0.00036491847 0.00048034012 -0.0007170542 -0.0010855161 -0.0012557491 -0.0010450354 0.0014208638 0.0016373034 0.00026035728 0.000390263 -0.00055226526 -0.0014227651 -0.00022173811 0.0007480733 -0.00021670865 0.0004152425 0.0013590787 0.0013428926 -0.000321332 7.935162e-05 0.0016963156 0.0017306707 0.0005986013 0.001099175 0.0009761145 0.0006710273 0.0011078643 -0.00059584284 0.0008565994 -0.0012803498 0.0016081325 0.0015483808 -0.0004972389 -0.00017604584 -0.0012439232 0.0005899195 -0.00020151048 -0.0005527431 0.00033917566 -0.0018825112 -0.0012301214 -0.0009888407 0.00025351113 -1.1083683e-05 -8.398464e-05 -0.00040312158 -4.581731e-06 -0.0010140655 -0.0016115365 0.0006197159 0.00042625226 0.0004815741 -0.0006032877 -0.000305905 -0.0019051625 -0.0016516024 -0.00023649402 0.0009784709 -0.0014906182 -0.001068331 0.00042435047 -0.0012997971 0.0012179117 -0.0008144199 0.00095172547 -0.00022064688 -0.0010232672 0.00073410315 -0.0016005277 0.0014779156 -0.00014151496 -0.00068037945 -0.0011347434 -0.00070070015 -0.001738668 -0.00024096016 0.0015848676 -0.0018334914 0.0008796975 -0.00046154024 -0.0015394875 0.0009991438 -0.00014218455 -0.0015392303 -0.0012923933 -0.00085507456 -0.00026960092 -0.0004971774 0.0008916666 0.0008354126 -0.0007828322 -0.0016278615 0.0014307686 0.0010915272 -0.00086585013 -0.00029708943 -0.0002372895 0.0006603477 0.0008766265 -0.0010588785 -0.0004980554 -0.00086692197 0.0011200417 0.0004642232 0.0015055663 -0.000116881376 0.000975155 -0.0016849948 0.00067843706 -7.2972856e-05 0.00031645372 0.0011416279 -0.0007528633 -0.00093478494 0.0005897416 -0.0006989225 0.00089222426 0.00041450144 0.0006286655 -0.0006317512 0.00021267158 0.00021682688 0.0010139676 -0.0014399544 -0.0019157123 -0.0011735128 0.0007542626 -0.00080810825 0.00157275 -0.001773009 0.0014950904 0.0008193803 0.001082293 0.00075059466 -0.0004982653 0.0012820254 0.00035807805 0.0011948885 0.00026697316 0.0014579336 0.000992601 -0.00086148124 0.00025917648 -0.00028273388 -0.0010152691 -0.0006286515 0.0009937852 0.0010429398 -0.00123132 -0.00045792127 0.00012554805 0.0013428723 0.0014676217 0.0005451722 -0.0011068501 0.0004923978 0.00075904315 0.0007205853 0.0009766946 -0.00066785765 -0.0002178815 7.29337e-05 0.000578672 -0.00034813478 0.00082792836 0.0008201212 0.00074235944 0.0015868096 -0.000866962 0.0010427781 -0.00031948503 0.0017502939 -0.00036895566 0.00020488343 0.0013681939 -0.0006879991 -0.00033545066 0.001499585 0.00037672534 0.00096294103 0.00014969637 0.00022000262 0.0016680717 -5.1967145e-05 0.0008849788 -0.0016126768 -0.00040444074 -0.0011397242 0.0004084722 0.00050616375 -0.0011441846 -0.0011368856 0.0013888413 0.0007643373 0.0014451896 -0.00021753498 0.00051027327 -0.0006070539 0.00084477983 0.00070814876 -0.0003236271 0.0013835708 0.00011917904 -0.00012692942 0.0013651756 0.00055900833 -0.0006008954 0.0016913876 1.0876033e-06 -0.0014139933 0.00037114494 0.0011299592 0.0008920778 0.001101212 -0.00010450543 0.0003963599 -0.0015131851 0.0002739812
در -0.00029116645 -0.0010963653 0.0003468661 0.0003773916 -0.0011159123 0.00084451796 -0.0005812201 0.0019442118 0.0011388547 0.0004689876 0.0003853614 0.00028009294 0.0008730809 0.001288765 -9.7041106e-05 0.0005779084 -0.0002217616 -0.0004916278 -0.00042876173 0.00013715905 -0.0016693475 -0.00049862167 -0.0014555622 0.0014094225 -0.0009681695 -0.00029522108 0.0006120146 -0.0004149343 -0.0013158678 0.001085565 -0.00029961273 -0.0017752289 -0.00040481574 0.0016346375 0.0005099308 0.0008177487 -0.0005705918 0.0012669569 0.00035248464 0.00073656806 -0.00021076047 -0.00042386143 -0.00027305624 -0.00089325145 0.00032366865 -0.00062034983 0.0011704963 0.0006665372 0.00051257375 -6.753506e-05 -2.3584018e-05 -0.0010570043 0.00060643145 -0.00129536 0.0010673692 -0.00034208276 -0.0011939264 -0.0004886517 0.00026100932 -0.00086715753 0.00062957034 0.000116298404 -0.00049695175 -0.0010897643 -0.00033879158 0.0013413333 0.0007270468 0.001046226 -0.00019280547 -0.00023478565 0.00078026153 0.0012266291 0.0007213388 0.0003069117 0.00079284987 0.00067573437 -0.00034289336 7.0749644e-05 0.0003624263 -0.0012297084 0.0014501195 -0.00078373187 0.0013205009 0.0015361236 0.0004149987 -0.0013945809 -0.0018289876 9.2347866e-05 -0.00056610786 6.767083e-05 0.00060059194 0.0011003846 -0.0013021615 -0.00094860484 2.3542498e-05 -0.0011716307 -0.00085256714 0.0015049273 -0.0014874357 -0.00015074507 0.001085636 0.00024508554 0.0006378026 0.00031440853 0.0008983332 0.001298532 0.0012615678 0.0008094749 0.0008703279 4.095961e-05 0.0013934936 0.0013950606 2.3966415e-05 0.00087437953 0.00056631555 -0.0014635685 -0.000648493 -0.00069324195 0.00030396006 -0.0012069785 -0.001305769 -0.0005844775 -0.00048123393 0.0015718297 -0.0014196445 0.00041038138 0.0002646172 0.001767461 -3.942865e-05 0.0008918957 0.0014957183 -0.0006034268 0.0011221537 -0.00034624626 0.0016595201 -0.001529003 0.0013048209 -0.0012600479 0.0015946273 -0.0005020973 -0.0015741165 -0.000635715 0.0005804082 -0.0017894224 0.0003633404 0.00035535463 -1.4505955e-05 -0.0017130139 -0.0006902583 0.0007411878 0.0014731903 -0.00077412603 -0.0015710172 0.0011144467 0.000698411 0.0009211374 -0.000308808 -0.00013263858 0.00084566954 0.0013730834 0.0004018987 -0.0013989349 0.00024638427 0.00046545893 0.0013209789 0.001183156 -7.735931e-05 -4.5839173e-05 0.00013314858 -0.0010641451 -0.00040383244 -0.0011110886 3.6024092e-05 -0.00073634327 -0.001448502 -2.3295679e-05 0.0011517435 5.3755506e-05 -0.00019805155 0.0010248997 -0.0008309056 0.00035531432 0.0012888755 -1.5568532e-05 9.353842e-05 -0.0016061708 0.00055240234 -0.00024147051 -8.8756715e-05 -0.0013206993 -0.0010056371 0.00088286534 4.8985457e-06 0.00030162145 0.00075172377 -0.00042057218 0.0014479101 0.0006794543 0.00036693885 0.0010231187 -0.0010962354 0.0010936781 0.001073762 0.0009834263 0.0014534104 -0.00032830006 0.0006868075 0.00093390746 0.001019339 0.00129913 0.0011746177 -0.00017642949 0.00059249206 0.0016097877 -0.0014062492 0.0007879776 8.769693e-05 -0.00035114522 0.0008446809 -0.00012475737 0.0002654919 -0.0014497162 -0.0016225645 -0.0013155247 -0.0012363147 -2.8179087e-05 -4.128245e-05 0.0004075442 -0.0004996848 -0.00047998186 0.00013393702 -0.00048307123 0.0015483799 0.0015925346 -0.0010649664 -0.001613357 0.0007414642 0.0006361307 0.0012770584 -0.0003912009 -0.0012081417 0.0008057663 0.001022777 -0.0009150407 0.0007286486 0.0001499568 0.0008134561 0.0011256925 0.0005398983 0.0012890656 -0.0012644114 -0.00016097946 0.0007398683 0.00018443116 -0.00015490758 -0.00071088865 0.001380076 0.0016713301 0.0002967945 -0.0009567211 0.0012205289 0.00025289127 0.0005386873 0.0011628453 0.0016664102 0.00014785888 0.00040825008 0.00072937185 -0.0014856422 0.0006506315 0.00014462827 -0.00051138364 -0.0010477933 -0.0012258446 -0.0015534571 0.0007107053 -0.0002616064 0.0008754537 0.000871212 0.0012061849 0.0010889514 -0.00058964925 0.0004873629 8.1282364e-05 -0.0014774281 0.0009978325 -0.0006209142 0.00033940733 -0.0012556821 0.00037157047 -0.0003658766 0.0014036476 -0.0012047451 -0.001088546 0.0014367092 0.00022470202 -0.0013133279 0.00044807757 0.00022786939 -0.000248787
این 0.0013785108 0.000784355 -0.0008844383 0.0015792075 0.0013345085 -0.00054655503 -0.0014844827 0.0017545542 0.0013713744 -0.0011056927 0.0006763064 0.00091880123 0.00073117495 -0.001687412 0.00032570722 -2.2400143e-05 0.00015544594 0.00037417767 -0.0007464953 -0.0015055183 -0.0007547087 -0.0013728112 -0.0008941982 0.0009354556 0.0013463601 -0.0015652771 0.0006450951 -0.00037545824 -0.001306276 0.0008016842 -0.00053360476 -0.00029730046 -0.0013909594 -0.001111148 0.0019933095 0.00046897228 -9.952484e-05 0.00062819326 -0.0010188218 -0.0010131396 -0.00062148646 -0.001065697 -0.0017721842 0.0012182152 0.0015000601 -0.00079490064 -0.0003683761 -0.0014447765 0.0005341949 0.00082439854 0.0009882465 -0.0011562883 -0.0010684658 0.00079153816 -0.0002055723 0.0015592554 -0.0008144151 6.273667e-05 3.2018903e-05 0.0012356474 0.0014770996 -0.0014332185 0.0015661148 -0.0010588653 0.00032991683 4.1372074e-05 -0.0016044208 0.0015826366 -7.971337e-05 -0.0011352167 0.00044343574 0.000407667 0.000877228 0.0014039392 -0.0013804511 0.0009732416 0.00065633067 0.0016058004 -0.0013549912 -0.0011092451 0.00047303643 0.00037714755 -6.4842345e-05 -0.0002488738 -0.0014178131 5.952381e-05 -0.0009808708 2.5823727e-05 0.0005522159 0.0010521227 -0.0010163576 -0.0014448268 7.067873e-05 0.0016775226 -0.0010413904 0.00020319066 -0.0011566505 -0.0012279397 0.0015003403 -0.0014397638 -0.001564293 0.00059962436 -0.00012299637 0.0018379173 -0.00047443953 -0.0005370676 -0.00030004012 0.00054561085 0.0011174923 -4.3678727e-05 6.3198924e-05 -0.00061985594 -0.0013946352 0.00016138513 -0.0007095246 0.00031689875 -0.0015250779 0.0012977464 0.0008424395 -0.00040319836 0.000419576 0.0005967194 -0.0014171307 0.0012966888 0.0007448568 0.0010386904 -0.00026925225 0.00083620474 0.0009037048 -0.00059632986 -0.00067344087 -0.0007058611 -0.0011113583 -0.0010157822 0.0010024913 -0.0017391152 -0.001050224 -6.7094436e-05 0.0015193707 0.0012479641 -0.0006336955 -0.0011539666 0.0010580913 0.00060903194 -0.00017532168 -0.0009855343 9.673211e-05 0.0011252876 -0.00035671136 -0.0012698286 -0.00101481 0.00078808155 0.00045495774 -0.00095309695 -0.0011022729 -0.0014004058 -0.00091020006 0.0013946627 -0.00025796107 0.0013778618 -0.0010329692 -0.0012788693 -0.0004399305 0.0008422779 -0.0012546786 -0.0013936267 -0.00071418146 -0.00028363857 1.3866417e-06 0.0010446286 0.00045498577 0.0015912162 -0.0012433752 -0.0017031905 -0.00023419081 0.001165793 0.00036066715 -0.0019534372 0.0012201397 0.00015285816 -0.0016195831 -0.0015475737 -0.0011275318 -0.0009863329 -0.00020540645 -0.0011934187 -0.0004837406 -0.0006269841 0.0016970722 0.0005036662 0.000816798 0.00022182625 0.00016292768 0.00047755905 0.00028948495 -0.0010676833 -0.00046882444 0.000117772135 0.00046092988 0.0014960653 2.7265e-05 0.00033472528 -0.00066837226 0.00076973037 -0.0013553759 0.00012241495 -0.00016901238 0.0010828379 -0.0009535744 7.0461305e-05 -0.0012141855 0.0005622136 0.00096813746 -0.0011571455 0.00050713494 0.00079122337 -0.00090627343 -0.000215413 0.0012423826 -0.0005325981 -0.0015300317 -0.0011312458 -0.0012486645 -0.0010621954 9.4188355e-05 -0.0016903112 -0.0014235325 -0.00081014226 0.0015729443 0.0008865721 -0.0005251681 -0.0010701928 2.3033783e-05 -0.0012618965 0.0015503776 0.00049785053 -9.956562e-05 -0.000630926 -0.00062898354 -0.0015621587 0.0017446617 0.00032476624 -0.001586288 0.00084126345 -0.0015936564 -0.0009133133 -0.0007864025 0.00032004833 -0.0013317461 0.00042805818 0.0011107582 -0.0012173619 0.00089502224 0.00052810344 0.00069692114 -0.0014972147 -0.0012353251 0.00073647045 0.00020844777 0.00014663643 0.0014290814 0.00075905345 0.0013753152 -2.6003672e-05 0.0015951789 0.00059521315 -0.0011678423 0.0007800239 0.0016036566 0.00021645268 -0.00096004276 5.690636e-05 0.0012524562 -8.640628e-05 0.0005005633 -0.0005316057 0.0002582085 -0.0011852093 7.578189e-05 0.0005746765 0.00075152447 -0.00086348265 -0.00028261603 -0.0010572287 0.001079009 -0.001033545 0.0009838251 -0.0016755675 0.00013781586 0.0007625805 0.00055013876 -0.0005791613 -0.0007728007 0.0011050339 0.00017637371 -0.00028928174 -0.0015867818 0.0011319488 -0.0011394027 0.0010573731
با -0.00042188214 0.0017264436 0.0008549579 0.0007304986 -0.0011331625 -0.0012223704 -0.0011429968 -0.0009693433 0.00014092284 -0.00031970118 0.001840175 0.000554711 -0.0006026931 -0.0010149946 -0.00034266416 0.0014272962 0.0010860726 -7.441146e-05 -0.001530232 -0.00029408754 0.0014094027 -5.707888e-06 0.0014085711 -0.0004203523 -0.0010386069 0.0006207512 0.00095577794 0.00028761153 -9.7911994e-05 -0.001252259 0.0005163696 -0.00020307726 0.00057169877 -0.00037027244 -0.00032524738 0.00017613302 -0.00064553646 -0.0002506446 0.0016082547 -0.0012436009 -0.001235664 0.0012814238 -0.0017007289 0.00046919717 -0.0015220548 -0.0010975843 0.0007337035 0.0011687807 0.0008458045 -0.00040957966 0.00020058667 0.0009752337 -0.0014499542 0.0005550276 0.0013013276 5.4026208e-05 0.00011777174 0.0014539224 -0.0011844857 -0.0014504597 0.0014274651 0.0008226614 0.00027289364 -0.0017062014 -0.00095344684 0.0010143771 0.00066906883 0.0012355549 0.0013822499 0.0006195227 -0.0010584383 -0.00144532 0.00060017547 0.0010203584 -0.0012578331 -0.0008433211 0.00089544023 -0.0008071171 0.00087750866 -0.0016482644 -0.0016179002 0.0009147718 -0.0004292306 6.944276e-05 -0.0008310285 6.999902e-05 -0.0017711808 0.0016810702 0.00048224576 0.00060927053 -0.00081693166 -0.00035714384 -0.0012436062 0.000139019 -0.0008952693 -0.0016598483 -0.0006354251 0.0005772959 -0.0012943496 -0.00025912552 -0.00060511875 -0.00016964834 0.00023458533 -0.00043373386 -0.0005597424 0.0010530056 -0.0008216096 0.00085065357 0.0007381066 0.0013480303 4.6002762e-05 -0.00093565934 0.00077589904 -0.0009795488 0.0002482126 -0.0012555694 0.0008017929 0.0003056462 0.0011004516 -0.0011965578 -0.00021219229 -0.0017604041 -0.001580001 -0.001492635 0.00010431065 0.0006858601 0.000742259 0.00039066302 -0.0016823848 0.0013262378 -0.00040885783 0.0011472568 0.0007107798 0.0014201154 -0.0010358454 -0.0013360613 -0.0014248086 0.0015063003 0.0014471511 -0.0007253019 0.00034898947 0.0008301838 0.0011056935 0.0011274602 -0.00032250237 0.0014686328 0.00142623 0.0007174737 0.0014140615 0.0015406822 -0.0004971906 -0.00037795663 0.0014302382 0.0013521604 0.0014794511 0.00095857517 0.0006254344 -0.0010677002 -0.001091053 8.781376e-05 -0.0014347555 -0.00049490255 -2.6922915e-05 0.0011851396 0.00016853432 -0.0012434348 -0.00079044315 -0.00043241898 -0.0012452069 0.00010541367 -0.0007481006 0.00034158726 -0.00058892864 -0.0014196376 0.0004165514 0.0016128026 -0.00081275095 0.00015979254 6.194529e-05 0.0012660228 -0.0010839349 0.00023113008 -0.0009788261 0.0017650335 0.0012114805 0.00062856474 -9.01627e-05 -1.8416093e-05 0.00084749714 0.0015580169 0.00079711404 -0.0010719497 -0.0015951894 0.0016486228 5.9339276e-05 -0.0013230762 -1.37390225e-05 0.00066081126 0.0010007803 0.00079967204 0.0001731478 -6.4999826e-05 -7.389792e-05 0.0011076304 -0.00012779255 -0.0012966557 -0.001273745 3.699499e-05 -0.0013813766 -0.00011101762 -0.0006842222 -4.5420053e-05 -0.0012749734 0.0001178983 -0.00018145621 -0.00024195593 -0.0010612557 -0.0011799389 0.0008038183 0.00014192812 0.00060214754 0.0010698672 -0.001485117 -0.0010637923 0.0015045378 -3.1695888e-06 0.0010806514 0.0011448353 0.0011359032 -0.0012740135 -0.0007970019 0.0004779143 0.0006260578 -0.0009053404 0.0002192743 0.00031759002 0.0015582959 -0.0008128986 -0.0004960348 -0.00083437236 0.00048664009 -0.0007749823 -0.00029342153 0.00065563404 0.0010988009 -0.0012037233 0.00018139776 0.00026051028 -0.0010574156 -0.00087614404 -0.00012901603 -0.0004390914 0.00019892168 -0.00034357692 -0.0010046149 0.0015039002 -0.00094918825 -3.099898e-05 0.0017855928 0.0007906182 0.0004977781 -0.0010409441 -0.00037803873 -0.0014402778 0.00013977129 -0.00044699575 -0.00017059935 0.0014492774 0.00024976154 -0.0016258952 -0.0010077457 0.00088492804 0.00095561123 -0.00034408842 0.0010632058 0.0008236506 0.0009651779 -0.0006246437 1.31834195e-05 -0.0010632927 -0.00054025115 -0.0015758935 0.001568638 -6.757348e-05 -0.001582437 0.00037060643 -0.00052769063 0.0010592415 -0.0017630381 -0.0010188174 0.00013361765 0.0010472048 -0.000859051 0.00026288113 0.0013407926 -0.0016316966 -0.00127254 -0.0015203706 0.00013496193 -0.001429073
ادامه -0.0005199141 -0.0005202306 -0.0007840231 0.00040764635 -0.0012441049 0.0008676379 0.0014503178 -0.0014174461 0.001540498 -0.0005374533 -0.0009044337 -0.0008447488 0.00111199 -0.0015917965 -0.0013681256 8.513951e-05 -0.00022141128 0.0007087535 -0.0015162567 0.00033851303 -0.0016634046 -0.0015950566 -0.0013726921 0.0015088104 -0.0003320297 -0.0010570751 0.000514082 0.00042156517 -0.0009861131 -0.0007844828 -0.0010792597 0.00026869113 -0.0015478653 0.0013599854 0.0012476216 -0.0003976829 0.00039803423 0.0006650976 0.0013367032 -0.0016534931 -0.00031987348 0.00024285434 0.0008210631 -0.0009786836 0.00014777888 -0.0013279617 -0.00015759272 0.0008466538 0.0008416033 0.00039085202 -0.0008276531 -0.0013940629 0.0005707528 -0.0008763106 0.0009732067 -0.001327904 -0.0005741453 -0.0005949806 -0.00049963273 0.00087501213 0.0013167721 -0.0016423223 -0.00080179237 0.00095276895 -0.000970044 -0.001129984 -0.0013593602 -0.0011275356 0.00067209173 0.00014892375 9.076836e-05 -0.0014554631 -6.67675e-05 0.0013714659 0.0009149046 0.0013469746 0.00035270027 0.0015400972 -0.00065765646 0.0012432148 -0.00031941457 0.0010951032 0.0010103884 0.0014793891 -9.28109e-06 0.0010858129 0.0014841591 0.0005145928 0.000146427 5.0682473e-05 7.5067546e-06 -0.0005919964 0.0012193632 0.0005212062 0.001544998 0.00064558553 0.0014333997 -0.000745486 0.0008835417 0.0010374631 -0.0009556077 0.00026099468 0.0007584518 -0.0003031244 -0.0011452495 -6.410767e-08 0.00054588093 3.6073576e-05 -0.00045887608 0.0008067159 0.0014291102 -6.02016e-05 0.00040746448 0.0016089089 0.0015822636 4.439484e-05 0.0010567346 -0.001293137 -0.0010103316 0.000383582 -1.8376433e-05 -0.0013701401 0.000536637 0.0015122902 -0.0007834781 3.211534e-05 -0.0005535419 -0.00085621304 -0.00058340054 0.0005581875 0.0011571781 0.0012656936 -0.0016220168 0.0012123706 -0.0011216475 -5.650982e-05 0.00013337481 0.00084314594 0.001317816 0.00153319 -0.0016336677 0.0007388124 0.0009670265 -0.0012051277 -0.00039148092 -0.00018968055 0.0008318408 -0.0006837041 -0.0014481706 -0.0012628058 0.00024127173 0.0014832123 0.0003861365 0.0011641565 -0.0006704012 -0.0014069976 2.2092032e-05 -7.954576e-06 -0.0012050698 0.00032892788 -0.0015161213 -0.00060214265 -0.00011592682 -0.0003104061 -0.0004690859 0.0013850749 0.0008809936 0.0014382476 -0.0012611181 0.0012937566 0.0015257297 0.0005851162 -0.0014603429 0.0010678468 -0.00041819082 -0.00016007497 0.00069764274 -9.096435e-05 0.0013891114 0.0014186382 -0.0016094572 -0.00032493402 -0.0010758478 0.0012098292 0.00082710566 -2.1286285e-05 0.001431013 0.00037557608 -0.0011316288 0.001123498 0.0003009447 0.00016473794 -0.00023251484 0.0012883951 0.0009950525 -0.0010405607 0.00046132714 -0.00081403204 0.0015110612 -0.0005872496 0.0008736656 0.0010633834 0.00074955885 -0.00011439698 0.0012973817 1.946279e-05 0.0014477064 -0.00078257767 0.00027116702 -0.00041708467 -0.00034509707 0.0011622867 -0.00065263966 -0.0009708187 -0.0005348093 -0.000959404 0.00081868266 0.00069719955 -0.0012458994 -0.0012711725 0.0007722777 0.0010232923 -0.0009313722 0.00011097176 -2.6703927e-05 0.0010404307 0.0011807723 -0.00094876136 0.00039770306 0.00071076193 -0.00013962657 -0.00088188355 0.0003495427 0.001349157 -0.00090355036 -0.00046369233 -0.0011163141 0.0008520606 0.00023366578 -0.000288294 -0.0008170014 0.00038307684 0.0011107123 0.0009239447 -0.0011156593 0.00091790466 -0.0011384038 0.0007350189 -0.0011930629 0.0005940515 -0.0016906817 -0.001133776 -0.0004035754 -0.00018363901 -0.00056198525 0.0008987578 0.0007592487 -0.001079994 6.574002e-05 0.0015520809 0.0002447159 -0.00078751607 0.0001104321 -0.0007571294 0.0007042331 0.00014995938 0.001534945 0.0015787028 -0.0006963951 0.00052845804 -0.0015904771 0.0005257739 0.0007078666 -0.0012822994 0.0007693532 0.001571062 0.00030830572 0.0012007023 0.0016247685 0.00022551538 3.4407087e-05 -0.000501442 0.0011653776 0.0003568659 0.000104063474 0.0010976249 0.001438074 -0.0008040711 -0.0011429817 -0.0015383514 0.0011108902 0.0012699363 0.00041547834 -0.00032412887 0.00063821184 -0.00133091 -0.0010688603 -0.0016887086 -0.0014213542 0.0002752984
مردم 0.00036738586 -0.00077154645 -0.0003311793 0.0004069072 0.00022414787 -0.0009863562 0.00026890467 0.0005851609 -0.0005126908 -0.00093693065 -0.001517945 0.0005527764 -0.0010022746 -0.0017457041 -0.0007888561 -0.0005014224 -0.00029409543 0.00016368825 0.00041535232 0.0011604937 -0.001735819 0.0008943564 -0.0008059666 0.0005683888 0.00064356206 -0.0013773278 0.0009981284 0.0009187723 0.00082827127 -0.00052544463 -0.0010093064 0.0014028654 0.0014449226 -0.0011852148 0.0010929023 -0.00055565854 0.00052175863 -0.0007471153 0.0004406373 -0.0010196869 0.0011543286 -0.0012934295 -0.0016558907 0.0013940169 0.0015696107 -0.0008545706 -0.000760781 0.0009827375 6.502144e-05 -0.0017007603 0.0014403097 0.00094662985 -0.0013331614 -0.0014621532 -0.0014153526 -0.00010957964 0.00048133015 0.0003652693 -0.00044514643 -0.0016792312 -0.0012222037 -0.0010813649 0.0011537194 0.00050705794 -0.00045894255 0.0013215056 -3.5348585e-05 0.0003804796 0.0013808076 -0.00018998249 -8.101407e-05 -0.00010899399 0.0015315961 0.0015634722 0.00067368284 0.0007103148 0.0005616288 -0.0007682528 0.0013711457 -0.00018274994 0.0013781961 0.0004689252 0.0010910021 -0.0011143937 0.001337705 -0.0010954223 -0.0008846857 -0.0003080002 -0.0011401499 0.0002889579 -0.00057104626 0.0008055667 -0.0008378788 -0.001537769 -0.0017360754 0.0003635217 0.00076343445 0.00023321809 -0.0008145681 -0.00033848122 -0.0011939604 -0.0010683879 0.00056970824 -0.0010600708 0.0007044606 0.00092186243 -0.00052029814 0.0015987235 0.00012967866 -2.0457219e-05 -0.001150332 -6.812002e-06 -0.0006912889 -0.00023695308 0.0008402897 -0.0006243425 0.0014000296 -0.00039990357 -7.817208e-05 0.0013546181 0.00087013264 0.0011378117 -0.0010496164 -0.0010703513 -0.00070354453 -0.0006710345 0.00071819435 -0.0010289572 -0.0007729485 -0.0010409948 -0.0015269605 0.0012120116 0.00083902734 -0.0014091857 -0.00041103322 0.00070781604 0.00018319029 0.0012982684 0.0010754828 -0.0013194515 -0.0010125596 0.0006209463 -0.0013963629 -0.0014296764 0.0002791264 0.000647162 0.00093372335 -0.00041876576 6.6441455e-05 0.0018008343 8.518602e-05 0.0007002453 -0.0012602953 -0.0010893915 -0.00031989304 -0.0008022676 -0.0010044356 0.0010634133 0.00027494383 0.00045522233 -0.0005023967 0.0012240673 -0.0006161107 0.0005070094 0.0007509608 0.00018620149 0.0007512757 0.0008614073 -0.0011972933 -0.0016653598 0.0017718781 -0.0010906066 -0.00044195316 -0.0003042017 -0.00033184935 0.001052815 0.0004941363 -0.0018440231 3.6666897e-05 0.0007015192 0.00013877352 0.00027766687 0.00044141384 0.0011952961 0.00091387465 0.00054377835 0.0014069078 -0.0012881849 5.370851e-05 5.2920976e-05 0.0016647009 -7.474167e-05 0.0007244613 0.0013518686 0.0010995319 -0.0009429597 0.0016823015 0.0015088167 -0.0015041608 -0.0010802301 0.0008911607 0.00041621248 -0.0003438368 0.00015366645 -0.0012183427 0.0014147066 -0.0016452908 -0.0015274507 -0.00092180556 0.00084902433 -0.00043258152 -0.00042650924 -0.0011494169 -0.0015376093 -0.0006741927 0.0013563681 0.0007655608 -0.0001404781 -0.0007493358 0.0007443337 0.0013876861 0.0011276422 -0.0010927495 0.0015280753 -0.00057058595 -0.0016664738 0.00020361226 1.3557573e-05 -0.0016722715 -0.0011275873 0.0011848271 -0.0015041925 0.00025121975 -0.0008730917 0.00070752046 -0.00077111396 0.00053612323 -0.000718816 -0.00013073659 0.0009825054 0.00021887069 -0.0005483347 -0.00024216322 -0.00066328596 0.0008524457 -0.0009866839 -0.00046735752 -0.0013363732 -0.0017538362 0.00022888691 1.6219843e-05 -0.0009625344 0.0001262612 0.0005499522 9.185923e-05 0.0004905135 2.7180671e-05 0.0002988784 0.00020145369 0.0012393594 0.0004805594 1.0090973e-05 -0.00038132182 -0.0011415074 0.0015159154 0.00058163144 -0.0014165482 0.0009707916 -0.00044996792 0.00068209914 -0.0015032019 -0.00056666933 -0.00073885225 0.00081183354 -0.000575066 -0.0010223254 -0.0002971456 0.0014686437 7.508128e-05 0.0011772994 0.0013387284 1.2043992e-05 -0.0012919506 -0.00028269307 -0.0006572807 -0.0010067712 -9.152101e-05 -0.0009908162 0.0010376029 0.0013380622 -0.0016508481 0.000410582 -0.0015355572 -0.0007339938 -0.0012892379 0.0015182962 0.00071186497 0.0002874077 0.00041039506 0.0004219268
باید 0.00038402385 0.0009800965 -0.0007976284 8.677873e-05 0.0013512078 -0.0004737411 0.0008169713 2.6105632e-05 -0.00039716877 0.0014779477 -0.0008661609 -0.001356102 -0.0003457569 -0.00078712223 0.00078896986 -0.0008793339 -0.0010050181 -0.0005288576 -0.0002926532 8.074585e-05 0.0014766203 -0.0009050165 0.00103736 -0.00072034966 -0.00069228065 0.00092883635 0.0009906761 0.0006157313 0.0011734448 0.0010466714 0.000897798 -0.0005369156 0.0002973364 -0.00095227984 0.0014842746 0.0016077718 0.0010727685 -0.00011505593 -0.0008115822 0.000109326065 0.00096051674 -0.00043570128 -4.3658165e-06 -0.0012755695 -0.00012627146 -0.0009135132 0.00033601577 0.00068242 -2.977656e-05 -0.0005219531 0.0013916789 0.0015476161 -0.0011200026 -0.00093153963 -0.00056181033 0.0007726013 -0.0013623089 -0.00021725454 -0.00078841666 -0.0009183323 0.001694652 0.0003319581 -0.0011529296 0.00030212462 -0.00062033447 0.0015103191 0.0005374 0.00140779 0.00048825683 -0.00017152562 0.0014914573 4.8746766e-05 -0.0015466145 -0.00087888923 -0.0014341053 -0.0004989114 0.00033859722 0.0016881154 0.00062319497 0.00060519914 0.0005388972 -0.00058049563 0.0013689764 -0.0010306664 -4.985551e-05 -0.00065339345 -0.0011231392 0.0008666496 0.0013228764 0.00097587914 0.0010133274 0.0011455838 0.00087944453 7.970799e-05 -0.0017628549 0.0008653152 -0.0010553544 -0.0014381568 -0.000767295 -0.00020811158 -0.0012374356 0.0010844278 -0.00035262585 0.0009326846 0.0015600736 0.00087245443 0.0013409598 -0.0008976517 -0.0013310775 0.0009803886 -0.0009809112 0.00013247243 0.00030175797 0.00066704926 0.0011142782 -0.0009790878 -0.0015536174 5.009412e-05 -0.00037598444 0.001064178 -0.0004124055 -0.0016327853 -0.0008881879 -0.00077710813 0.0003786014 0.00042291277 -0.00089842454 0.0013587512 0.0009000683 0.0011110457 -0.00092232303 0.0001428256 -0.0014379626 -0.0008924794 -0.0012601487 -0.0017272709 -0.0010012074 0.0011130428 -0.0010038788 -0.0014540968 0.0012424312 -0.0012189698 -0.0013232525 0.00054713566 -0.0014662009 0.0005920695 0.00062884967 0.0009051882 -0.0006646196 0.0011914467 -7.5876545e-05 -0.0005479224 -0.0011723648 0.00074049516 -0.0010985398 0.00043960012 -0.0011355137 -0.0004079903 0.0016971339 0.0009990573 -0.0014778012 0.0009943532 -0.00011634536 -0.00073426653 -0.0011503381 -0.0011945431 0.00037863888 9.433808e-05 -0.0015834998 0.001579426 -0.0008015958 0.00027792045 -0.00047225135 0.0006704969 -0.000712216 0.00041943218 -0.00076480414 0.00021869224 0.0015651615 -0.0012601468 0.00017634756 0.00076443184 -0.0013433967 0.00058841903 -0.0008442657 -0.000551963 0.00076090347 -0.0016179838 1.8094293e-05 -1.3899988e-05 0.0007826458 -0.0013171268 -0.0012277954 0.0003874142 0.00026372602 0.0005275661 -0.0007042427 -0.0008929676 -0.00061371655 -0.00041122138 -0.0009587126 -0.00033042638 -0.0014049688 -0.00065186346 1.4407333e-05 -0.0011801828 0.00028751104 -0.0007683176 0.00043881452 -0.00032215792 -0.0011150704 -0.0014262736 0.00086593506 -0.00013092445 -0.00085715804 -0.0015915532 0.0007249726 6.407075e-05 0.0016758603 -0.0002571624 0.0016370586 4.7096632e-06 -0.00037135807 -0.00038772845 -0.00046343214 -0.001593382 -0.00025380883 0.0011025047 -0.00019790736 0.00011948821 -0.0016857277 -0.0015522459 0.0010457766 -0.0015658382 0.0012730993 -0.0016220047 -0.0013392975 -0.000386345 0.0009474774 -0.00034178048 0.00028793165 3.8090096e-05 -0.00038014638 0.0008286377 -0.001048705 -0.00096799317 -0.0013514282 -0.00025646944 0.00017366475 -0.00066344504 -0.00082366087 -0.00089185446 0.0016033608 5.8252877e-05 0.00020767772 0.0012388317 -0.001266638 -9.394413e-05 0.000590863 0.00067902915 0.0009911385 -0.0013345632 -0.0005394066 -0.0015463246 -0.00033803034 0.0011107787 0.0009748233 -0.0013783777 0.0006723558 -0.00047578863 -0.00024374724 0.0014618055 0.0015472326 -0.0011024085 0.0001640005 -0.000989121 -0.0013518347 -0.00031860865 0.0012615133 0.0002679383 0.00041927554 -0.0005234946 -0.0013335658 0.0012725157 -0.0011504681 0.00015054081 -1.570562e-05 0.0012384265 -0.0007275307 0.0006579435 -0.0007475616 0.00015396251 0.001236406 0.00031094032 -0.0008420773 -0.0014420731 -0.00069857 -0.0016681034 5.5419092e-05 -0.0004397859
است 0.00014080804 -0.001119606 0.0005359961 0.0007236908 -0.00043550174 0.0015144568 -0.0003607957 0.00071614486 -0.00050269294 -0.00085282145 0.0010224612 0.001115384 -0.0016257946 0.0014692134 -0.00070850004 -0.00049010536 -0.0010793868 -0.0004538741 0.0012265992 0.00096504024 0.0005579942 -0.0002479893 -0.000519892 -0.00122819 -0.00071332825 0.0013590475 0.0013565024 0.00055379973 -0.0009059754 -0.0014839926 0.0001437238 0.00012619284 -0.0005866394 0.0007652804 0.00023779983 -0.0008571026 0.0011495469 0.0016374112 -0.00046054125 0.00071674306 -0.0012337434 -0.0014577695 0.0014664828 -1.9412237e-05 -0.0015478202 -0.0011515787 0.0010187438 -0.0010253505 -0.00042859348 -0.0015144431 0.00079838163 -0.0010709721 -0.00029938944 -7.132135e-05 0.00023482251 0.001034724 0.0009305104 0.00052416895 -0.001080291 0.00028414326 -0.0005378445 0.0002873791 -0.0009976253 7.543169e-05 -0.0010007622 0.00053786865 -0.0012960531 -0.0007808609 0.0009906987 -0.0011545192 0.00019390833 0.0010846014 -0.0003168942 -0.00035429068 3.6303783e-05 -0.0014873514 0.00051529496 -0.0010796573 0.001336506 0.0015965796 -0.0013585986 0.00024996855 -0.0005869357 -0.0009856765 -0.00047142696 -3.8123442e-05 0.00021528768 0.0013470565 0.00041991507 -0.00013635254 -0.00086174306 -0.0007758352 0.00038599485 0.00086929067 -0.0002381291 -0.0013581968 0.00010845513 0.0012358063 -0.0012665763 -0.00026074037 -0.001653409 0.0006719096 -0.00026791828 -0.00089737104 0.0012189165 -0.0014441401 -0.0013046686 -0.00085289386 -0.0006500147 -6.213749e-05 0.00040189203 -0.0007123958 -0.00037156852 -0.0012378795 0.00030296997 0.001071933 0.00047473967 0.00048779813 0.000980062 0.0014518413 0.0008094997 -0.0009918076 0.001094155 -0.0016848253 -0.00031359494 0.0009401256 -0.0015509084 0.0016559149 0.0012377396 9.429198e-05 -0.00097831 -0.0014020462 0.0011792139 0.0008166226 -0.0010933932 0.0011054797 0.0007224602 2.4024157e-05 6.773479e-05 -0.00016598435 -0.0015409039 0.0014564493 -0.00048715065 -0.0005366469 0.0015066625 0.00083745964 -0.0015457874 0.0010357829 0.0012236482 0.001593788 -0.0007896082 -0.0016562875 0.0013573887 0.00036359933 0.0013654719 0.0010023161 -0.00064914656 -0.0012964595 -0.0012741084 0.0006545727 -0.0011794176 0.0012861645 -0.00018388111 0.0005089795 -0.0006016238 0.0014084041 -0.0017117691 0.00085209723 0.0015389734 -0.0011609875 0.0009760392 0.0015085489 -0.0015819885 0.0012361963 -0.00038926152 0.0014316338 -7.930274e-05 0.00025932732 0.0016309842 -0.0014190054 0.0013026815 2.6583319e-05 -0.0012459602 0.00037635106 -0.00079411984 0.00077933574 -0.00073779986 -5.9942777e-05 0.00095366006 -0.00024586488 -7.739323e-05 0.0013305376 0.00011735861 4.349049e-06 -0.00064079644 -0.0016197489 -3.8753995e-05 0.0010410969 -0.0007848688 0.0004340255 0.00096349086 -0.0013052054 -0.00074313534 0.0013821585 -0.00091628905 0.0005389966 0.00036653655 0.00026051654 1.1687082e-05 -0.0011799727 0.0013396716 3.546677e-05 -9.7365184e-05 -0.0014058438 0.0011709781 0.0004994428 0.0010968427 0.00031955607 0.0006629659 -0.001570636 -0.0008678124 -0.00017924004 0.0003743462 -2.3187495e-05 -0.000390587 -0.00079055515 5.9845883e-05 0.0005874512 0.0010004285 0.00074220344 -0.00018555485 -0.0017894808 0.00024648648 -0.00033579615 0.0006558441 0.0015896244 0.0013113423 -0.00093611825 -0.0006516399 -0.0011077377 0.0013822134 0.0013344847 -0.001325703 -0.0012294143 -0.0007052534 0.0009857775 0.00044619286 -0.0014532007 -0.0011666452 0.0012474958 -0.0014039477 -0.0010410656 -0.000597441 -0.0001795478 0.0015891416 0.0007654008 -0.0006566147 0.0007027988 0.0006953296 0.0014638283 -0.00079169276 -0.0005653488 0.00048028998 -0.0016979729 -0.0015930813 0.00021123062 0.0010796039 0.00022338962 -0.00045129325 0.00063751364 -0.0013802146 0.00040094476 0.0007047224 -0.0011824209 -0.00061374565 0.000728923 -0.0011835844 -0.0016533949 -0.00018171666 0.00041999843 -0.00077632477 0.0007813218 0.0016189069 -0.00013999174 -0.0009930261 -0.001705034 0.0003708318 -0.00077294273 -0.00038700883 0.0015015379 0.0013126504 0.0011503515 -0.0014894418 -0.0010002883 -0.00045736754 0.0016106315 -0.00022132052 -0.00035034676 0.00036191574 0.000109108
اینکه 0.00019017847 0.0013241915 -5.1821364e-05 -0.0014461315 0.00067960273 0.000442159 -0.00029434953 0.0014872253 0.0005172252 0.0011063948 0.0003994661 -0.00025647786 -0.0005591209 -0.0014642999 0.0008908553 -0.0003326868 -0.00030185888 0.00037015657 -0.00016182443 -0.00031938966 -0.000680342 1.3037947e-05 -0.00048578883 -0.0010714538 0.000839664 0.0008659523 -6.709649e-05 0.0003313331 0.0015588751 0.0010799665 0.0011093483 -0.0006838698 0.00090997305 -0.0004259757 -0.0009785387 0.00068345485 -0.00090605376 0.000376693 -0.00026251728 0.00064768386 0.001113634 -0.0007947968 0.0009349189 -0.00046890613 -0.00055056735 -0.0011452907 0.00084927067 -0.00084118865 0.00039116287 0.0010050294 -0.00090889557 -0.0006878981 -0.0014683468 0.001544095 0.00019245653 -0.0014142822 -0.00013398133 6.679274e-05 0.00081152463 0.000663562 0.00097076845 0.0007655166 0.001185432 -0.00041273894 0.0005554985 0.00039933118 0.0011416274 0.00031514652 -0.0014014685 -0.0013843135 0.0010034641 0.0015231471 -0.00058209 -0.00054900866 0.00067754154 0.0014981905 0.0011592187 0.00093116733 0.00036544734 0.00074410957 0.0005748307 0.000673819 0.0003422512 0.001059775 0.00014360368 -0.0009995743 0.00024125958 -0.0014253148 -0.00024104508 0.0014304941 0.0015611694 0.0011399181 0.00088271534 -0.00095060753 -0.00017714627 -0.00047550508 -0.0008769 0.0013341903 -0.0014929929 -0.0016075936 -0.0002952185 0.0012489778 0.0013541151 0.0015541335 -0.0014964386 0.00012696153 -0.0012542483 -0.0013673549 0.0006122976 -0.00092941197 0.000106521875 -0.0012644485 -0.0010262894 -0.0005072619 0.00023802689 -0.00069957343 0.0013733922 -0.0013589053 -0.00058215926 0.0006091845 -0.0012566432 0.00070943066 0.00034630994 0.0011057047 -0.0012647224 0.0012826164 6.3420694e-06 0.00046246446 -1.9895102e-05 -0.00065215706 0.0014190301 0.0010243617 0.00048924994 0.0013479756 0.0011202927 0.0002457251 0.0010681442 0.0003919478 9.383498e-05 -0.0004090072 0.001178579 0.0011825839 -0.0003371227 0.0005674609 3.8988408e-05 -0.0004275499 0.00082337885 0.0006483426 -0.0012102176 0.0009370895 0.0015266268 -0.001096252 8.973698e-05 0.0010753627 -0.0014337531 0.00040108856 0.00071553607 0.00052308623 0.00092532684 -0.0012522691 -0.0009306525 0.00094057823 -0.0008110613 -0.0013497967 0.0011869377 0.00088147185 0.00093879557 -0.00056743686 -9.818387e-05 0.001040064 0.0012496287 -0.001506527 -0.0009236767 -0.0013985613 0.00035489918 -0.00097156095 -0.0007645284 -0.0009959795 -0.0012375629 0.0011968517 0.00075270765 -0.00030556097 -0.0011455171 0.00015624307 -0.00034739557 -3.9526807e-05 0.0010191086 0.0009879014 0.0004119864 -0.0005300215 0.0014973257 -0.0008132275 0.0014214434 0.0018145631 0.0008226271 -0.0012423252 -0.0006419277 -0.0009519854 -0.0013256803 -0.00027997643 -0.0013807738 0.00092357706 -0.0015153014 0.00043260472 0.0015549713 0.0004531746 0.00066145294 0.00087967823 0.0011697535 5.0431827e-05 -0.0015107191 -0.0010874228 0.0013945377 0.0005593059 0.0011233517 -0.0014719104 -0.0010109491 -0.0007791171 0.00043788832 -0.00035688485 -0.0015648947 0.0013369786 0.00068495213 0.0016557485 0.0007209939 0.0007417277 -0.0012335663 0.00041805083 -0.0014012888 -0.00023823173 -0.0006733785 -0.0006006504 0.00037842977 -0.00061710953 0.0011121881 -5.0492617e-05 -0.00017402267 -0.0008746207 0.0011438379 -0.0012792367 0.00135665 -0.00016602737 -0.0009522183 0.00040157133 0.001180637 0.0010111873 -6.4640946e-05 -0.0015929108 -0.0007738747 0.0005679728 -1.272639e-05 0.0015948341 -0.0011002468 -0.0014935982 5.2653773e-05 0.00018981815 -0.0004604511 0.0008649503 2.7524255e-05 0.0013839217 0.00032244198 -0.0008973288 0.0016709674 0.0010737849 -0.000234013 0.0014004261 -0.0016358914 0.00016134219 -0.00080167607 -0.0005603414 -0.0010877887 -0.0015452863 -0.0016086749 -0.00092061126 -0.0010956461 -0.0013417691 0.0015276414 0.0008808872 9.7070035e-05 -0.0014377811 -0.0005642734 0.00024115016 -0.00045290953 0.00016513208 -0.0014941929 -1.4550124e-05 -0.0014670383 -0.00043948824 -0.001031741 -0.0007397419 0.00071856094 -0.0010675117 0.0013205268 0.0004715291 0.00022097322 0.00090735906 -6.750065e-05 0.0012589656 0.0013386041 0.0013116144
قانون 0.00084236066 0.0008483488 -0.00037096345 -0.0006288865 -0.000711417 0.0014671627 0.0013885857 0.0015576627 0.0014821821 -0.0014860851 0.00020112596 -0.00039515182 0.0005418749 0.00066167384 -0.0013697735 0.0013342287 -0.0001970929 0.0011869533 -0.0015802394 0.0017766381 0.00070741837 -0.00092626584 0.00010296608 0.00012235974 0.0011338193 0.00012618866 -0.0003426853 -0.00065776845 -0.00036385155 0.0005940005 -0.0007075192 -0.00020278158 0.00020633265 0.0016162689 -0.00095994875 0.0015732934 -0.000715347 -0.001187143 -0.0009551965 -0.0014713055 -0.0012695701 -0.00036141783 -0.00070341944 0.00016404988 0.00034986084 -0.00095555506 -0.0009542334 6.040615e-05 0.00011898464 -0.0013291545 0.0010680889 -0.0013187747 -0.00073322677 -0.0010591084 0.0010800239 0.0015074319 0.0013580528 0.0006970346 -0.0013693046 0.00025805255 -0.0014622044 0.00016236279 5.1932057e-05 0.00013711935 0.0011762002 -0.00093921187 0.0013634415 -0.0008692809 0.001338534 -0.00060620706 0.0010678612 -0.0013640822 0.00013558817 -0.0014739577 0.00038846 -0.0007262925 0.0018433272 -0.0013591003 0.00063803606 0.00076651096 -0.00089207967 0.0007920039 0.0009968384 -0.00012417445 -0.0008944575 -0.0017532237 0.0005904369 0.0014777674 -0.0010362297 0.0009503195 0.0008652054 -0.0006092448 0.0006208618 -0.00048342903 -0.0010595316 -0.0013027205 0.0009059161 -0.00044258757 -7.78355e-05 -0.000108259424 0.0011705817 -0.00048066734 0.00013544732 0.001028315 -0.0015637946 -0.0012075213 -0.0011098484 0.0003324302 -0.00082768337 0.00013302811 0.0015585357 -0.0015262486 0.0012125601 0.0009326575 5.0323913e-05 0.00014325864 -0.00038847575 0.00094803364 0.0007690943 0.00069624186 0.0014199418 -0.0011448172 0.0013713177 -0.0016677796 0.00040284626 -0.001168308 -0.0006490673 0.00070446706 -0.0010783533 -0.00063849567 -0.000834472 9.50542e-05 -0.0013232991 0.0009204645 0.00038953376 0.0009815837 -0.001752249 0.0006186704 -0.00040788154 -0.0015037783 -0.00090376555 -0.0004918698 -8.378902e-05 0.00019388914 -0.00020763246 0.00031911395 0.0010080918 0.00012159546 0.00020112692 0.00068221556 6.7562774e-05 0.001351764 -0.0016613485 0.0016045128 0.00097474037 0.0001352018 -0.0018831006 0.0017686862 0.0013814416 0.00095383916 0.0016778684 0.00039775652 -0.0005664596 0.0016634229 -0.0010765285 0.00072343316 0.00076743594 -0.0014148458 0.0013396419 0.0008824549 0.0014255701 -0.0012340645 -0.0004601255 -0.00082837016 -0.0013759951 0.0013103881 0.0013050634 -0.0017172882 0.00096427713 -0.0015340006 0.0015986386 -0.0006892397 2.5611276e-05 0.0012289969 -0.00058447313 -4.8809314e-05 0.0011464196 -0.00087942387 0.0008546814 -0.00019368631 -0.0014717061 0.0015935686 0.001445152 0.0013652963 0.00045531758 0.0013717266 0.00013610373 0.00012781237 -0.0001249929 0.00067364937 -0.0004045563 -0.0010513556 -0.00089053984 -0.00017426095 -3.3583266e-05 -0.0010836568 -0.0009212362 0.0011582989 -0.0016868187 0.00020613243 0.0012976773 -0.0007247282 0.000701452 0.0014619561 0.0009907266 -0.0009866451 -0.0001872062 -0.0010106635 0.0013304203 -9.855531e-05 -0.0010891134 0.0017715516 -0.0015067953 0.0012202127 -0.0013365068 -0.0005543033 0.0015275347 3.5605604e-05 -0.0007074808 0.001753468 0.0006163562 0.00015890924 0.00026075047 -0.00040377397 0.00092936493 -0.00030230853 0.001579548 9.387451e-05 -0.0015844773 -0.0011288048 0.0005107009 0.0014131445 0.0012006996 -0.00070639554 0.0004385946 -0.00069218583 -0.00030881888 -0.0014792562 0.0012365998 0.00045663252 -0.0016439093 -0.0003600038 -0.0007031717 -0.00052864663 0.00015761037 0.0014068778 -0.0015837399 -0.0003351503 0.0016129481 0.00055806024 0.00037235825 0.001476498 -0.0009323095 0.00094201515 -0.001016641 -0.000104741004 0.00065790466 -0.0014382986 0.0010272269 0.0014437996 -0.0007534295 0.0011786093 -0.00080886343 1.650945e-06 0.0015261628 0.000148554 0.0006098011 0.0015508763 -0.0013192807 -2.9593177e-05 0.0008472823 0.0005712961 0.0015778455 -0.0017139403 0.0016103004 0.00085610565 -0.00089774217 -0.0009892165 -0.0017944743 0.001641777 -0.0009181802 0.00011407082 0.0008816434 0.0011003652 -0.00029375195 -0.0009264619 0.00030028555 -0.0011225988 0.0014572637 -0.0010509156
آن 0.0005142518 0.0010236123 -0.00059873 -0.0008201425 -0.001523679 0.001451312 -0.00014016402 -0.0012657456 -0.0010933562 0.00085185183 0.0017599128 0.0016459498 -0.0010441103 -0.0010080079 0.0008217151 -0.0008096127 0.0001815 0.00097481563 6.6056076e-05 -0.00019990731 -0.0007142162 -0.00051434437 -0.0011639792 -4.031041e-06 0.0009956321 -0.00043665845 -2.9802388e-05 -0.0012585816 -0.0009636458 0.0014959007 0.00043826163 -0.0017510493 0.001220296 -0.0012685749 0.0014212523 0.00011529227 0.0013806034 -0.0013638671 0.00061206287 -0.0014087937 -0.0018305088 -0.00092608784 -0.0015504437 0.0014350909 -0.0006524347 0.00088694505 -0.001447134 0.00157146 -0.00067229685 0.0012451863 0.0004894952 0.0013180175 0.00053196575 0.0011087245 0.0015006344 7.079034e-05 0.0010861986 -0.0003528367 -0.0013401973 -0.00050505856 -0.0009737074 0.0008166516 0.0016769731 -0.00039763295 -0.0005549562 0.0003495052 0.0012115267 -0.0014701308 -0.0004374754 -0.0006003807 -0.00055089133 0.0012748106 -0.000707418 0.000113550785 -0.00057136733 -0.0016448087 0.0013953459 0.00043386046 -0.00021124892 0.00021961101 -0.0016774269 0.00074491743 -0.00015853602 0.00137854 0.0012932731 0.00019565981 0.000876984 0.0008397982 -0.00095579884 -0.00072210724 -0.0006164062 0.0003025703 0.0004549627 -0.00028270893 0.0003956279 0.001376395 0.0017206026 -0.00050533086 0.00036964862 0.0012598473 -0.0011187707 0.0016340365 0.0017896516 0.00027907582 -0.0016307088 0.0007882515 0.000696459 0.00070171524 -0.00096275 -0.0014147288 0.0002404467 -0.0009500647 -0.001325599 -0.0013274186 -0.0014292296 -0.0013937555 0.0005264311 -0.0009860317 0.00077871775 -7.5422424e-05 0.00150341 -0.001765238 0.000566731 0.0013792432 0.00047826106 0.0008255466 -0.0014782549 0.00026015413 0.00037837552 -0.0005064481 0.0015277279 0.0011012183 -0.0011171901 -0.00072989205 -0.00023285477 -0.0017342824 -0.0015025447 0.00048694774 0.00012212382 0.00052545225 0.00093651935 0.00071038975 0.0015107228 -0.0016369306 0.0006398695 -0.0013907645 0.00028315856 0.001089465 0.0007538318 -0.0012441921 -0.0017394816 -0.0010212685 -0.0015806241 -0.0009697667 0.00017003567 -0.0008765287 -0.0005007634 -0.0012559944 0.0009286325 -0.00030197296 -0.0004396396 0.0013801419 0.00075117254 0.0001151339 0.0013759012 -0.0016140592 0.001137776 0.0013954607 -0.0010272256 -0.0014882911 0.00064398727 0.0010010311 -0.0008617751 -0.00089264015 -0.0007607731 -0.0006177759 -4.120527e-05 0.0007843106 1.2094295e-05 -0.0016609933 -0.0003882448 -0.0011120683 -0.0015723112 0.0008468465 0.00082431064 0.00078792847 -0.00013628908 0.00052724354 3.0559724e-05 0.0006353573 -0.00026248087 -0.0016014456 0.0014675916 -0.0006344125 -0.00030191898 0.0008685523 0.0012543298 -0.000852878 -0.0016855439 0.0010675126 -0.0012768626 0.0008936434 0.0010440623 0.00017971115 -0.00047726656 -0.000431866 -0.00067565043 -0.00032556424 -0.00077386346 -0.00018475972 -0.0010188104 -0.0016396095 0.0015155483 0.00035081478 -0.0015169289 -0.001307988 0.0008463606 -0.0012091704 -0.00030321896 0.001084688 0.0015254433 -0.0014364972 -0.0014093346 0.00033267488 -0.0017510657 -0.00084351335 -0.0010683807 0.00016547962 -7.166215e-05 -0.0006313759 -0.0002797945 -0.0012005048 0.0011942966 0.00016851095 0.0011556646 0.0013761822 0.0015312632 0.0010225348 0.00034856197 0.0012662071 -0.0006837288 0.0011717611 0.0011740441 -0.000850342 0.0010389215 0.00061162165 0.0005465829 0.0005715635 -0.0015025911 -5.1828083e-05 0.001112458 0.00057065854 -0.0008982311 0.0011965374 0.00051640364 0.00059121265 0.00017227863 -0.00034417998 -0.00017690897 -0.0004343465 -0.0016084457 -0.0013840649 -0.0011419419 -0.00045876767 0.0011801434 -0.0015169719 -0.0008662095 -0.0007783962 -0.00071766577 0.000922656 -2.3474357e-05 -0.00053567876 -0.0012854377 -0.0015952581 -0.00092785136 -0.0007801583 0.0011101306 0.0013932594 -0.0013859574 -0.0007046575 0.00015476115 -0.0001223433 -0.0014091226 -4.6787758e-05 0.0010013365 -0.0014401409 -0.001578152 0.00076505216 -0.0017858916 0.0010681292 0.0010670904 0.0012524882 -0.0012261994 -0.00042621224 0.0013319597 -0.00056240015 -0.0002754358 0.0009296632 -0.0016266423 -0.0011241048
است. -9.434313e-05 -0.00046085802 -0.0013057269 -0.0013850783 -0.0002044707 0.0014220083 -0.00013830046 0.0017188687 -0.0014310472 0.00048144348 0.000979885 -0.001108448 9.840916e-05 -0.00054424873 -0.0007110369 -0.0011301289 -0.0006034466 -0.00029208313 -0.00011948728 0.00073452306 -0.0002545308 0.00034579856 -0.0017315106 0.00021281616 0.0007446697 0.00064503687 0.00062779716 0.001472939 -0.0010106555 0.00038401465 0.00038315466 -0.0004276951 -0.0009627098 2.2286045e-05 0.0011647185 0.00051439233 0.0005704348 -4.775577e-05 -0.0004367143 0.0012996267 -0.0008617087 0.00018147936 -0.0007921857 -0.0011192494 0.0013267716 -0.0013177714 0.0011845332 0.00017931586 0.0011687737 -0.00145917 -0.00072132814 -0.00025745571 0.000808592 0.00085572444 -0.0010396227 -0.00012688414 0.0005144782 -0.0012890198 -0.00094949687 0.0011073034 3.1351028e-05 0.001018357 0.00026423568 -0.0012227986 0.0015123966 0.00092860457 -0.0007314239 0.00066083233 -0.0004200365 8.4804626e-05 0.001184784 0.0008274903 0.00039771787 0.0001677403 0.0011289316 -0.000141869 0.0008445921 -0.0011187721 -0.0006060262 0.0013704733 0.0011712335 -0.001198662 -0.0008986607 -0.0014028115 -0.000120531695 0.0014603283 0.0014353227 0.0008151052 0.0010512023 -0.0012548623 0.00082775904 -0.00018888898 -0.0010852494 0.0015378286 -0.0010688206 -0.0002467605 -0.0011675257 0.0013569802 -0.0015561738 -0.0016584094 -0.00071937696 0.0011382822 0.0013701422 -0.0009281427 -0.0003651694 -0.0011202598 -0.0008154918 -0.000663785 0.0011468956 0.0016128941 0.00047453496 0.00050603243 -0.0012845302 0.0010558777 -0.0011925616 0.00024791405 -0.00053600443 0.00046460636 -9.0422625e-05 0.001154697 0.001029449 0.00056294346 -0.0014916138 0.0008010794 9.297991e-06 0.0014939402 0.00095546513 0.0017026582 -0.00029493953 0.0002825825 0.0015114337 0.0008920401 -0.0014930645 0.0017982435 -0.00053550996 -0.00020167671 -0.00038990643 0.0015225786 0.00010689707 0.0015894416 -0.00034895592 -0.00011885313 0.0015455274 -0.00063482026 -0.0012538522 0.00054677326 -0.0011099689 2.6360194e-06 -0.00033997683 0.0013103611 -0.0015271236 0.00016509376 0.00029164652 -0.0011188037 0.0015020788 -0.00061008596 -0.00089741265 0.00089411985 -0.0005442545 0.0007119004 -0.001070478 -0.00032280156 -0.001665637 -0.0011192783 3.1260613e-05 -0.0017081837 -0.0006386673 -0.00065137853 -0.0006719032 0.0012217895 -0.00081436697 -0.0004008155 0.00027295886 0.00014047671 -0.0010000594 0.0005871009 0.0001465145 0.0011022238 -0.00039004046 0.0011186246 -0.0013125553 -4.2831787e-05 -0.001285707 0.0014411152 0.000895347 0.00042130236 -0.0006885248 0.0015244831 -0.0002000527 0.00071692315 -0.0008393335 0.00072723185 -0.0012779271 -0.00079786574 -0.0006313787 -0.00016509095 0.0006164594 -0.0004692607 -0.0013258246 0.00013024264 0.0007553479 -0.0015897158 -0.001423378 0.0016064614 0.0011625926 0.0009903684 0.00041663897 0.000100142264 0.0001522305 -0.0014899913 0.0015707613 -0.0013552834 -0.00096688693 -0.0014650059 0.00038566516 0.0009191484 0.0006306371 0.0006107827 -0.0008622882 -0.00045710092 -0.00068377575 -0.0005633014 -0.001636382 -0.0010793479 -0.00046839906 0.00011173776 0.00080613914 -0.00068059604 -0.00061962556 -0.00011641616 0.0013666616 0.0011221804 -0.00055995455 0.0015512188 -0.00038912022 0.0009816396 0.0013486381 0.0015569873 0.0007817714 0.001614178 -0.0010093098 0.00097453914 -0.00015848967 -0.0015346162 -0.00014478325 0.001454487 0.0008757936 -0.00067614665 -0.0001835119 0.0010238467 0.00080746785 0.0007190195 0.0008639121 0.0016678299 -0.00073877216 -7.776235e-05 0.0013808185 0.00013974769 -0.0010183138 -0.0013665282 0.0004420809 0.0010930181 -0.00039474995 -3.0126175e-05 -0.0012044467 0.0009951373 -0.0011296414 0.0007233657 -0.0007908931 0.00053712405 -0.00012781798 0.0015349136 -0.0014116338 0.0003733999 0.0010716745 -0.001343992 0.0014584265 -1.0954407e-05 0.0014404551 0.0015943822 0.0014060279 -0.0003674235 0.0016944102 0.00056086935 -0.0012203543 0.0014597756 -0.00011563992 -0.000529469 0.00025225064 -0.00037224058 -0.00020489175 0.0002914891 -0.0003312607 -0.0012376772 0.0004247275 -0.0013658989 5.5269596e-05 -0.0010309082 -0.0013070862 0.0012997289
همه -0.001219113 0.00043752987 0.0013624468 0.00032914878 0.00059440284 -0.0002573684 -0.0013629977 0.00079828734 0.000120210156 -0.0008612491 -0.0013477025 -0.0013185905 -0.000375597 6.5393244e-05 -0.0010095403 -0.0009144613 -0.0006524869 0.00070364366 2.6049931e-05 0.00068068854 -0.00016657487 -0.0013122989 0.00038708988 0.000968449 -0.001478736 -0.0006375588 -0.00015759488 0.0014360005 0.00039943884 -4.213518e-05 0.0013669168 -0.00085906504 -0.0015182315 -0.00021644034 0.0005199796 -0.00020567025 0.0013290616 -0.0015369657 0.00050811906 0.00054309214 -0.0008244401 -0.0006996668 -0.00019076833 -0.000940303 -0.00070599926 0.00029472855 -0.0010028523 0.0013301568 0.00026518904 -0.0015915701 -0.0011644233 -0.00066717167 0.00027736957 0.00084884185 0.0005506588 -0.001091822 -0.0016828026 0.00076776085 -0.0013276744 0.001501053 -0.0011305051 0.0010620132 -0.00013390018 -0.0007643508 -0.0015167227 0.0004632618 -0.0008928007 -0.0001274049 -0.0014546108 -0.00084882503 0.00034273491 0.0015418795 -0.0005121443 0.00057147915 -0.0013741417 0.0014424232 0.0015922644 -0.00023908606 0.0005895105 0.0001440552 0.001148448 -0.0006010041 -0.0011054452 0.00065317657 -0.00047266908 -0.00023495404 0.0009447157 -0.0007541224 0.0012031794 0.00011546921 0.0015049336 0.0012727125 -0.0011719633 0.00070573844 0.00082840904 0.00014313782 -0.00067117566 0.00046771657 0.00019295776 0.0012885629 -7.201064e-05 -0.00082212506 0.0006983253 0.0013607522 0.0012357349 0.001009785 0.00086290296 -0.0010268887 0.00021470101 -0.00061394786 -0.0015798537 -0.00091622415 0.0016982072 -0.0014131858 -0.0004378867 -0.0010674794 0.0011090548 -0.00011722932 -0.0005217523 -0.0014983952 -0.0010351709 0.0011459867 0.00036724895 -0.001611135 -0.000624133 -0.0014493569 0.00032500038 0.001501213 -0.0008605603 0.0009430302 -0.0013792712 -0.0006614129 0.0010942196 0.0003342983 -0.0012802042 0.0006282695 0.0013286647 0.0010573748 -0.00018728239 0.00072953635 -0.00038263353 -0.0012497727 0.00032562998 -0.00021789597 0.0009063096 0.00034845422 -0.0010146974 -0.0015980658 -0.00085470534 -0.0014093056 -0.00046859393 0.00057772524 0.0009992131 -0.0001171018 -0.000745896 0.0008101763 0.0007006516 -0.0005175512 -0.00019510592 -0.0010586977 0.0015900803 0.00075542514 0.00084400247 -0.0006215417 -0.0013881773 -0.0006427166 0.00029722456 0.0005180902 -2.4453533e-05 0.0014144583 0.0014433783 9.3773786e-05 0.00089683797 -0.00032678104 -6.232797e-05 0.001309874 -0.00030550978 -0.00058114424 0.0013256753 -0.00078485993 0.00033940666 -0.0017388498 0.0014020103 6.635876e-05 -0.0011738228 0.001030389 0.00027653814 -0.0013759895 4.9072136e-05 0.00028787646 -0.0010419438 0.00016170755 -2.9198756e-05 0.0004071877 0.0014794946 2.6795804e-05 0.0014070274 0.00160416 -0.0011806295 -0.0010250061 -0.0010335718 0.0014449169 0.00065627863 0.00061609957 0.0014137607 0.0012562833 0.0010319388 -0.0013446617 0.00068199466 0.001633737 0.00081528065 0.0012971301 -0.0011077259 0.0007487069 -0.0011072443 -0.0005457465 -0.0015577364 0.000580111 0.00013068916 -0.0006929822 -0.0006577177 -0.00080959155 -0.00032328407 0.001607688 0.00013771676 -0.0014749971 0.0014940833 -0.00059458055 0.0006437155 0.0009386726 0.0014988236 -0.0014885861 0.0012785291 0.00088065636 0.00054203114 0.0008645182 7.650159e-05 -0.0011371875 0.0008375286 -5.6630437e-05 -0.0006811761 -0.0014388256 -0.00076954364 0.0016576974 0.0014926215 0.0004151173 -0.00028357617 -0.00088491273 -0.0009485181 -0.00065225986 0.0011592911 -0.0008605756 0.0005213066 -0.00062156835 0.0012040199 0.00044616018 -0.001608391 0.0009505677 0.0009829379 -0.0007639465 -0.0015053828 0.00020228075 0.0009398681 -0.0012708507 -0.0011268515 0.0012880807 0.001315649 0.0006501615 -0.0004402398 -0.001136986 0.00045701777 -0.0010059753 0.0006995583 0.00065951725 0.00077692635 0.00026282558 0.0016999223 0.00059970724 0.0015067162 0.00061342976 -0.00022354706 0.00064648385 0.0005129228 0.001359552 0.0011430071 0.0005686141 0.00070344884 0.0005980742 -0.0011057146 -0.000569204 0.001510708 -0.00084021734 -0.00010115689 -0.0013655452 -0.001488694 0.00040921062 0.0010351685 -0.0017274661 -0.00029189078 -0.00094354176
روحانی 0.0007739969 -0.001121956 0.0013180748 0.00023850841 -0.0010240254 0.001459753 -0.00037824674 -0.00043523137 0.00096184306 0.00047548034 0.0014787195 0.0013291085 -0.0010490705 0.0007120348 -0.0005511514 -0.0010759251 3.849813e-05 0.00035781547 0.0005159705 0.0013619551 0.00020341527 0.00096514804 -0.0011703728 -0.00052785885 -0.0010042996 0.0016144079 -0.00045553345 -0.00065145706 0.0014100187 0.0007665355 0.0009695793 -0.0012287264 7.691332e-05 0.00055577175 0.000352267 0.00031888887 -0.0016700237 0.0012963122 -0.0003431276 -0.0011432696 0.00079176907 -0.00049119187 0.0010505355 -0.0008076522 -0.0004983436 -0.00027510175 0.00077735883 0.0010786172 -0.0014874755 -0.00026090315 0.00050399266 -0.0010080135 -0.00039034727 -3.1560296e-05 -0.00075748016 0.0012641264 -0.00043473442 -0.0011652733 -9.406549e-05 0.001390921 0.0011545072 0.0008274276 -0.00092313014 0.00016415962 0.00027889895 0.00022633173 0.0011814705 4.0937077e-05 0.0012475261 0.0014970981 -0.0015673445 -0.0013484368 -0.0011989675 -0.0015486397 -0.001494765 -0.0010318175 -0.00030703764 0.0006925393 0.000244645 -0.001466375 0.0010668916 0.0014472865 0.00045440023 0.0015908479 0.0005520933 -0.00093500497 0.00024959512 -0.0011868258 0.0001780458 0.0016006458 -0.0012536711 -0.0007555493 -0.00059714075 0.001516631 -0.0016348719 -6.0091934e-05 0.0010603043 -0.0015680917 -0.00036088904 -0.00081336027 0.0010230859 -0.0012899942 -0.0012058167 -2.074674e-05 0.00127416 0.0010743872 0.0017459296 -1.2663693e-05 0.0005340582 -0.0014484944 6.6448774e-05 0.0003067724 0.00065427285 0.00072619517 -0.0010268426 0.0011732875 0.00062073325 -0.00026766042 -0.0014303038 4.3979304e-05 0.00071797095 0.001267365 0.0010301532 -0.00059725397 -2.0399097e-05 0.00089542684 -0.00066543644 -0.00040215938 0.00056198746 0.00074680557 0.0012838547 -0.00107706 -0.0012483773 0.00017260759 0.0004660563 -0.00013007253 -0.0014767698 -0.000313255 -0.00092794665 0.001071049 0.00026541433 0.0015197168 0.0015877833 0.00031081506 0.0011056334 0.00095308054 0.0010520611 0.0011679669 0.0016812681 0.0015765276 -0.0016218148 -0.0005149836 -0.0013140397 -0.00088031957 0.000686324 0.0012375453 -0.0003065054 0.0010941057 0.0009172343 -0.00076832366 0.0007957546 0.00056761596 0.0004391902 -0.000495343 0.0017187399 0.0013660637 -0.0012353514 0.0005106008 0.0013782483 -8.971277e-05 -0.00053356914 0.00013442298 -0.0015322762 -0.00028977674 0.0011449867 0.0003900738 0.0006591581 -0.0015345397 -0.000915601 -0.00037086403 -0.00058477256 -0.0005050304 0.00013942023 0.0012765999 -0.0015087771 0.001194182 0.0007918625 0.0013752185 -0.001371981 0.000635166 0.00027080547 0.0011630482 -0.001423932 0.0014697475 0.0016346045 -0.00063892757 -0.0011812162 -0.0011991996 -0.0006690791 0.0003986787 0.001364616 -0.0014019022 0.00032336937 0.00010025664 0.00051259645 -0.0003949671 -0.001127303 0.0016132965 -9.2046146e-05 -0.0010396745 -0.000983334 -0.00080531475 -0.0013195636 -0.0014898579 0.00019189058 -0.0010913274 0.00029870725 0.0002663542 0.00022445455 -0.0007438717 0.00092994014 0.001494364 0.0013683471 0.0012918796 0.0002869699 -0.0002872696 0.0014104395 0.0014703012 0.0012550598 -0.00077952316 -0.0016828965 0.0005839838 0.0009352608 0.0011827099 -0.0009524947 -0.0009509726 -6.896984e-05 2.1139106e-06 0.0007501476 0.0007841024 -0.00021509251 0.00011327672 -0.00023142577 -0.0009448447 0.0010441041 -0.0005913937 0.001061106 -0.0010209199 -0.0009050658 0.0016289713 0.001243146 -0.0008472513 -0.0008312327 0.0012056493 -0.0008067495 -0.00068708963 -0.0007381849 0.00056124316 0.0015735861 0.0010562148 0.001262327 0.0015046856 0.0012370422 -0.001345662 0.0011764975 -0.00035046146 0.00052191125 0.00069017475 0.00039693876 0.00028471585 0.0006296941 0.00016267426 0.00087076396 -0.0008490205 -0.00048746646 8.559692e-06 -0.0010812752 0.00020312966 -0.0013752088 -0.0013670769 0.00088232255 0.0011837115 0.0012017146 -0.00044797818 -0.00049122015 -0.0014263074 0.00015421832 0.0011978893 -0.0005185182 -0.000328653 0.0014561688 0.00093908777 -0.00012046732 -0.0012606026 0.00018158296 0.0009205667 -0.00047752203 0.00031413595 0.00137028 0.0010314587
اساسی -0.0011724157 0.00038587025 -0.00030212832 -0.0002603712 0.00054140337 -0.00059538096 0.0013827443 -0.0011402473 -0.0015618932 0.00036032096 0.0010219686 -0.00041382547 -0.0013781312 -0.0011123124 0.000373591 -0.0015738587 -0.0010497055 1.8276492e-05 -0.0011427775 -0.0009041953 0.0011046502 -0.0006295749 -0.0006230592 -0.0012808737 0.00041416832 -0.00046023214 -0.0015045152 0.0006289395 0.0007934315 -0.0009013137 0.00134605 5.178073e-05 0.0009569789 0.00038011535 -0.0006804763 0.0011918688 -0.0001408325 -0.000882322 -0.0012024363 -0.00080934505 -0.0011927829 0.00028936603 -0.0016929667 -0.0014747655 -0.0010055802 -0.00084107055 0.0015512039 0.0010348114 0.00014093787 -0.0013365269 0.00018581614 0.0014332857 -0.0010955993 -0.001325711 0.0009851842 -0.00033074408 0.000704273 -0.00065788825 -0.0010179753 0.0007771815 0.0008249153 -0.0009955973 0.0014613626 -0.0015674361 0.0008854293 -0.0010312189 0.00085010385 -0.0009703499 0.0015413626 -0.001472067 0.0014440669 -0.0010535923 -0.0012484232 0.0011219461 -0.0014593506 -0.000479599 0.0004765001 -0.0011741886 0.001506883 0.00090055837 0.00017482086 0.00086938374 0.00094953185 0.0007966438 -0.0009885104 -0.0010458331 -0.00058693835 -0.000784777 0.0012327445 -0.0010517195 0.00041356977 -0.0010950266 -0.0015143692 0.0006951035 -0.0006629397 0.0012051392 0.0006775106 -0.0014507262 -0.0008714717 0.00038481917 -0.00037240636 0.00074449956 -0.0013220261 -0.0010693384 0.0009273222 -0.0015295676 -0.0012396997 0.0012131985 0.0014872627 6.142105e-05 -0.00080826425 -0.0005749799 -0.0010789018 -0.0015881364 -0.00017073241 -0.00073911797 0.0008061792 0.0014742033 -0.0015176157 -0.00068932056 -0.00064710143 -0.0005791989 0.00019133705 -0.00018014942 -0.0009442118 -0.0011508476 0.0013405783 0.00056186056 -0.00037886886 0.0016614054 0.001232984 -0.0002940288 2.7408421e-05 0.0005497168 -0.0001765068 0.0014452547 -0.0015980368 0.0013518165 0.0011899476 0.00017070999 0.0010068745 -0.0008599048 0.0012019201 0.0009329846 -0.00047797977 -0.0010138715 -0.00064528896 -0.0010341229 0.0010327819 0.0011543173 0.0014377733 0.0015400093 -4.791054e-05 0.0015554115 -0.0015624736 -0.0014850076 -0.0018104666 -0.0012437166 0.0014026163 -0.0016579936 -0.0007297352 0.0005659155 0.0015531123 -0.0013899199 -0.0012585754 0.00029174925 -7.519715e-05 0.00047158348 0.0010947516 6.777155e-05 -0.00053634547 -0.00066261116 0.0001347612 -0.0014637145 -0.0005957529 0.00028662424 -0.0004466938 9.468797e-05 0.00024210893 0.0001887632 0.0014489866 -0.0016130345 -0.0005386663 -0.000117033 0.0008539336 -0.0010475257 -0.0017186241 0.0008632216 -0.0002795589 0.0006717671 -1.768107e-05 0.0012707697 0.00066965335 0.0016243014 -0.0010979974 0.0008279691 -6.968067e-05 -0.0012393137 0.0003733676 0.0004999032 -5.2497853e-05 0.0004379134 -0.00042722662 0.001294048 0.0015078275 -0.0014464254 0.00041235265 -0.00056828756 -0.0010346894 -5.6400266e-05 -0.00095090794 5.6331555e-05 -0.0014226806 0.0005468624 -0.00094191893 0.0014867211 0.00012882226 -0.000115095776 5.1849514e-05 -7.638669e-05 0.0011639604 0.001055008 0.0008996102 -0.0013352127 0.0014584204 -0.0011353026 -0.0014169102 -0.00012585412 0.0014606013 -0.0006869673 0.000179926 0.0006242722 0.00034400512 0.0005804448 0.00019597037 0.0015038361 -0.0014335747 -0.0015472238 0.0015404953 0.0011590663 -0.0006592291 -0.0006859379 -0.0005439866 -0.0005300299 -0.00057221414 1.6947557e-05 -0.000733752 -0.00086242665 -0.0016284664 0.0009059372 -5.130355e-06 0.00034425152 0.0014998401 -0.00061742164 0.0008149967 -0.0015609942 -0.00016565612 -0.00030859266 0.0004790542 0.0012657361 0.0008689757 -0.0011322583 0.0014908153 0.0011765476 -0.00016760072 0.0009426843 0.0013889074 0.00020665539 7.6096585e-05 0.001701352 -0.00092639454 0.0006638361 0.00053305813 0.001109836 0.0003366389 -0.0013797726 -0.0009424954 7.976821e-05 0.0015269466 0.00062133226 -0.00066846266 0.0016422647 0.0011952083 -0.0015424772 0.0008553401 -9.819792e-05 0.0008129686 -0.0010395511 0.0007750723 0.00096138736 0.00047334988 0.0005378527 -0.0010215368 0.00022105894 0.0002793575 -0.0012019164 0.00035182526 -0.0006725561 -0.00043033686 0.0015862003
گفت: -0.00020944445 0.0003155985 -0.0012872353 -0.0001547356 0.0013274209 -0.001635012 -0.0006619435 0.0014733108 0.00072502374 -0.00077920733 -0.0011632809 -0.0007754734 0.0013583171 0.0013359374 0.00030400493 -0.0006020649 0.00029206226 -0.0005040194 0.0010778769 0.0016863272 -0.0013346528 3.5546585e-05 0.0014773847 0.00013223021 0.0016362807 0.00029644312 -0.001397972 -0.0007777562 -0.0003737361 -0.0003743282 0.0006835435 -0.0004326647 -0.00068317354 0.00039930933 -0.0013744998 0.0014717916 0.00018171273 -0.0011277341 -0.00033334835 0.0005909918 -0.001301875 -0.0010888518 -0.0015348129 0.0006560401 -0.00044821695 -0.0014763479 -0.0009823742 0.00028496995 0.0006704743 0.00041378045 -0.0008806648 0.0013981991 -0.00044264432 -0.0013305282 0.0016526035 -0.00076096854 0.0004627703 -0.00081116206 -0.0001527065 0.0015193257 -0.00029851092 -0.0016495845 -0.0012694479 -0.0002750405 0.00039051764 -0.0009340554 -0.00075927924 3.415812e-05 -0.00032320758 -0.0015829634 -0.00050665246 -0.00035236857 0.00070302456 0.00050156884 0.001226926 -0.0007745872 -0.00028988085 -0.00034965333 0.00017397567 -0.00024056344 -0.0008662975 -0.0010418122 -0.00034253922 0.000625794 -0.0001034185 0.0001848582 0.0006435115 -0.0011102027 0.0013313447 -0.00028300603 0.0007859353 -5.864299e-05 0.0010544967 -0.0014637865 -0.0003106331 0.00014125131 0.0012014889 0.00010700704 0.0001759256 0.00023495604 0.0010306047 0.0005779067 0.0017253443 0.0007296008 -0.0005354524 -0.0010600414 0.00031197016 -0.0005642315 0.00030396553 -0.00078943116 -0.00046129082 0.0011341166 -0.00020889597 -0.0013332099 -0.000824515 -0.0012077114 0.001505787 0.00069433247 -0.00018726184 -0.000535407 0.0006142656 -0.00069909537 -0.00081905193 -0.0013020018 -0.00054439716 -0.00018818781 -0.0008666012 0.0009648957 -0.0010500728 0.0013513991 -0.00038855625 -0.0010091072 0.0006162548 0.0015984211 0.0014142359 -1.0157596e-05 0.00015489302 -0.00058243395 -0.00025161708 -0.0010334013 0.00064542255 -0.00021560745 -0.00040702664 0.00020771426 0.00087959564 -0.0016953918 0.001219609 0.00024352569 0.00059433945 0.0014854879 -0.000952405 0.0010846447 -0.0011420946 0.0013920299 0.00022966934 0.0011096931 -0.00041189417 0.0012037071 0.00042156418 -0.00040936001 0.0009872792 0.001325397 0.00085161533 -0.0005548422 -0.0011598165 0.0008953922 -0.00013661856 0.00043395473 -0.00094426336 -0.0009510031 -0.000594459 0.00036699357 0.001483397 -0.0013309709 0.00019696393 -0.0011305837 0.000507229 0.0011260313 -0.00073926436 -0.0013701476 0.000969619 0.001097692 -0.00016814268 0.0006360986 0.0001729711 -0.00046461268 -0.0017085212 -8.27512e-05 0.0006598533 -0.0015812267 1.5724518e-05 0.00083697663 -0.00053203024 0.0014028039 0.0006894848 0.0013406463 -0.00060109165 -0.0013232989 -0.0011478937 -0.00084665307 -0.00047306687 -0.0006827944 0.0012124651 -0.0009767367 -0.0010786701 0.0006926104 -0.0010246884 0.0010728298 0.00046300417 -0.0010292508 0.0010095248 0.00041303027 -0.0013380387 0.0011790204 0.0004051351 -0.001257778 -0.0009821043 -0.00077700225 0.0010677561 -0.0006401702 0.00020665847 -0.0008494132 -0.0014728998 0.0006357669 -0.0017500034 0.0011938006 0.00090742426 0.000104971616 0.00078805385 0.0015903454 -0.00054179924 0.0009366256 -0.0004108462 0.00015072829 -0.0012558833 0.0016065645 -0.0006528406 -8.688145e-05 -0.00063044654 0.00032391175 2.8554832e-05 -0.0015009308 -0.00013780232 -0.00089543534 0.0010822173 0.0007787218 0.00091403304 0.0016699778 9.507998e-06 0.0008956436 0.0006801835 -0.001663443 0.0016205355 0.0010127487 0.00041100947 0.00039775317 0.001185257 -0.0014367797 0.0009691012 0.0006131306 -2.8354838e-05 -0.001433546 -0.0014209237 6.221874e-05 0.00036158488 0.0007305042 -0.001394807 0.00077311404 -0.0006980826 -0.00045151042 -0.00053605833 0.0004081096 0.0013555035 -0.0003975478 0.0012125865 0.0012756739 0.0012721131 0.0007037631 -0.00017404441 0.0006606796 0.0007193916 2.677736e-05 0.001551286 -0.0015705175 -0.0005165266 -0.00021707613 0.0007543466 -0.0015133466 -0.00093722076 0.00040329024 0.00040710883 -0.0009955234 -0.0014974355 -5.2950854e-05 0.000873212 0.0014774511 0.00055855874 0.001209402 0.00016948584 -0.0008556696
پشت 0.0005027181 0.0015734659 -0.00093006255 -0.000705094 -0.0013340885 -0.00056211813 -0.00017291508 0.0018091879 -0.0011212943 -0.0009951028 -0.0014836087 -0.0013378188 -0.0017220139 0.00093735586 -0.0011346533 -0.0010438997 0.001560901 0.0015914913 -0.00026154736 0.0013441825 -0.00092282076 -0.00090224197 -0.00031762355 0.0012216271 -0.0013012666 -0.001446196 -0.00020155248 0.001506028 -0.0005527903 -0.0004570102 -0.0009286769 -6.120795e-05 -0.0001841575 0.0012106532 6.995206e-05 -0.00081511674 0.00018605191 -0.00049073447 -0.0011230026 0.0003872358 0.00041168227 0.00022834408 -0.0005335296 -0.0010615977 4.661146e-05 0.0012276141 -0.0002845425 0.00019883773 0.00011955271 0.00018718152 0.0004714388 0.0011329516 -0.0005281059 -0.0004749503 0.00046258056 -0.00037196823 -0.000789533 -0.0003020323 0.0002382957 -0.00023308817 -0.00041975876 0.0014074509 0.0008722843 -0.0016724892 0.0009809117 0.0012887523 -0.0007124062 0.00075510965 0.0016639065 -0.0014832664 -0.0007895607 0.0014546668 7.881127e-05 -0.00072752684 -0.0011825633 -0.0005277483 -0.0013376456 0.0013484228 0.0012809935 0.0006631748 0.0014570791 0.0012388369 0.0008059587 -0.0013549002 -0.0016321994 -0.0003487628 -0.0010116817 7.486425e-05 4.2105792e-05 0.0013220722 -0.0007210638 0.0013396464 0.00021354087 0.0006786518 -0.0012981882 0.0003674493 -0.00039930915 -0.0014025975 -5.7401223e-05 -0.0013436438 0.0006680432 0.0008098264 0.0010652338 0.0017338718 -0.0012995977 -0.0012342413 -0.0012027144 -0.0010040993 0.0007698861 -0.000256419 0.0015533748 0.0008204774 -0.0009188638 0.0010575649 0.00075776735 -0.0011266831 7.49056e-05 0.00083703414 0.00094655884 0.0014713246 0.00100019 -0.0012348567 0.0009112098 0.0010882083 -0.0012725195 0.0014003649 -0.00038794702 0.00019769843 -0.0008234137 0.00085856504 -0.00054634846 0.0009734605 -0.00017996982 -0.00092431944 -0.0015459594 -0.00038551743 0.0010546228 0.00061324326 0.0010138873 -0.0012764544 -0.0004710532 0.0011358395 -0.0011417922 0.00026871136 -0.00070911925 -0.00024750704 -0.00087897823 -0.0015443659 -0.0014081608 -0.0010161005 0.00054056826 -0.0005473092 -0.00031748426 -0.00044547563 -0.00019676868 -0.0005138347 0.00083295425 0.0012602804 0.00016089904 0.0011883599 0.0005339126 -0.00087891886 -0.0010181954 0.0008606028 0.0003466628 -0.00168304 -0.00011030143 -0.0010753956 -0.0001314877 -0.001462654 -0.0005069381 -0.00024847148 0.0005688099 -0.0006414578 0.00047532676 0.00026710943 4.2059703e-05 0.00025588972 -0.0008526371 0.00029576145 -0.0012586227 -0.0017387299 0.00018576346 0.0009875321 0.0006295795 -0.00027787648 -0.0017350886 -0.000572489 0.001637626 -0.0006942709 -0.0015958512 0.001267624 0.00090308645 -0.0010134353 -0.0005120603 -0.0010359838 0.001428707 -0.0011266551 0.0007539763 -0.0012482961 0.0008619966 -0.00024622254 0.00040952925 -0.0012972688 -0.001414194 0.00058125064 0.00084334426 2.9864605e-05 -0.0012369619 0.0013064572 0.0009190264 0.00066176156 0.0016325718 0.0010801102 -0.00075951894 -0.0016404551 0.0012795829 -0.0009012576 -0.00084635563 0.00014925386 0.001244734 -8.713828e-05 0.000598753 -0.00040900684 -0.0013386472 -0.0009561434 0.0016872056 -0.0012424433 -0.00014196028 0.001220194 0.00038208938 0.0013039963 -7.769675e-06 -0.00023185386 0.00022816194 0.001491816 0.0013230189 -0.00014250023 -0.0009614677 0.0005744992 9.177999e-05 -0.00087762973 -0.00077722 -0.0009609674 0.00047647784 0.0008380708 -0.0013451928 -0.0011729391 0.00028292355 0.0007277929 -0.00116982 -0.0012312353 -0.00048409388 1.2668639e-06 0.0004380702 5.3158743e-05 -0.00022287555 -0.001342004 3.031463e-05 -0.001350084 0.00095215376 -0.0007321068 0.0006694989 0.0009768888 0.0016543149 -0.0004934864 -0.0009281797 -0.001399469 -4.8982634e-05 0.0004146633 0.0006889609 0.00026566396 0.001214837 -0.0005766483 -0.00032169875 0.0016183392 0.0013643275 0.0003590226 -0.000642615 0.0011281711 0.0017155778 0.0014411291 -0.0005467907 -0.00041254293 -0.00036064847 0.00033636083 -0.00084643986 0.0011232895 0.0011909464 0.00038649555 0.00090007007 -0.001048576 -0.00047064235 -0.0014109404 0.000729071 0.0010454021 0.0014020148 -0.0005211115 -0.00019846408 -0.00041382055
برجام 0.0015288787 0.00031105924 -0.00011929577 -0.0007555326 -8.70031e-05 -0.00013194732 0.0010664564 0.0006272203 0.0010361494 -0.001228246 0.0006382132 0.0011966096 0.0013516142 -0.00017062199 0.0011209465 -0.0009134472 0.0010112942 0.000100160425 0.0009938659 3.0742784e-05 -0.0010382901 0.001021542 0.0014617551 0.0005784183 0.0014165922 0.00086140627 -0.0007521854 -0.0006927489 0.00054137455 -0.000991144 -0.0007695023 -0.00042377357 0.00029425134 0.00039085513 -0.0006250955 0.0004364391 0.0014862025 -0.001025169 0.0011882712 -0.0007606715 0.0011806387 0.00064665766 -0.000893625 0.0004238617 -0.00081738026 -0.0010753839 -0.00081455475 -0.0014011693 0.0004347571 -0.0005583496 0.0007405727 -0.0013095638 -0.0002081823 -0.00021731059 -0.00044993902 -0.00084294763 0.00052985846 0.001496492 0.0004677264 0.0005645167 -0.0013155293 0.0011135458 -4.813229e-05 0.0015862528 -0.0012631277 -0.001280392 -0.001547967 -0.0013283062 -0.0015962633 0.0007114781 0.0007635733 0.0005125953 0.0005043448 0.0013452824 0.00068398216 -0.0006244474 -0.00093528 0.0015382508 0.0007948403 -2.5788457e-05 -0.0008351983 0.000951718 -0.0007135786 0.00047808126 0.0009499592 0.0011146284 -0.0017762836 0.0015803471 -0.000920282 0.001342318 -0.0006820208 -0.0013927043 -0.00060497515 -0.001355686 -0.0008590634 -0.0002989176 -0.0014547742 -0.0008189972 0.00066571846 0.001207806 -0.0010633395 0.00037640642 0.00076348573 -0.0012333343 0.0016372716 -0.00079105434 -0.0009747396 -0.00046099751 0.001681095 0.0006204933 -0.000731414 -0.0003922296 0.00043254736 0.00053538993 -0.0006596415 -0.0011816608 0.0014935045 0.0012983457 -0.00090996583 0.00076281064 0.0013781197 -0.0017008793 0.00072699296 -0.0011655161 -0.00040359452 0.0010275987 0.0011739582 0.0013820216 -0.0016467862 0.0011443287 -0.0007109649 0.0010134607 -0.000900907 0.0006694647 0.0009621508 -0.00018259788 0.00017161001 -0.00019247763 0.0016346241 0.001590951 0.0003714124 7.623706e-05 -0.000584588 0.00085539377 -0.0015177334 0.00019577677 -0.0008705786 -0.00069978466 0.001299155 0.0011913202 -0.0010815887 -0.00047133386 0.00028193006 2.2743669e-05 -0.0014702753 0.001240267 0.0004199372 -0.0011827232 -0.00034438775 0.0015363478 0.0016574322 -0.00035880422 -0.00033015932 0.000974029 0.00069504604 -0.0008632415 2.920849e-05 -0.0013576393 0.0006426513 -0.0005160489 -0.0013672155 0.00057550106 0.0006143196 0.0010430034 0.0006192866 0.0013767802 -0.0006257082 -0.0008576766 -0.0012856352 -0.00096668274 -0.00090091315 0.00025572127 0.001574311 -0.00058096455 0.00070663536 0.0010784455 0.00047613189 -0.00011286938 0.00064017443 -0.00071680977 -0.00054821314 0.0008735462 0.0014702914 0.0006434734 0.0014769828 0.00057198125 -0.00010311876 0.00039658003 0.0002414701 0.00042903234 -0.0010687836 0.0007684338 -0.00046008555 -0.0002523921 -0.0005458106 -0.00027386541 7.314315e-05 -0.00094561325 0.00032554395 0.00010443288 0.000554458 0.0010551809 0.0013851777 0.0015940407 -0.0005651143 0.00063534937 0.0001708971 0.0007620691 -0.0012513336 -0.0015309604 6.56249e-05 0.00029286678 0.0004822636 0.0005114858 -6.69625e-05 -0.00015062129 0.0006347756 0.0015716213 -2.8801313e-05 -0.00049825123 0.0007996026 -0.00091417343 0.0006733751 -0.000415554 -0.00064035 -0.00067498354 0.0007848127 -0.0012389878 -0.0011020028 -0.00021530119 0.0012130331 -0.0006973816 0.00061316806 0.00026009494 -0.0016384724 -0.0005986433 0.0010388197 -0.0014233247 -0.0014068398 0.00069301313 -0.0012420886 -0.0010684497 0.0012687271 0.0008262478 0.0008480923 0.000757056 0.0013927364 0.0013867838 -0.0010110193 0.0007683167 -0.00052034 0.00024302561 -0.0007042093 -0.0007273267 0.00022687612 0.0013964785 -0.00010404292 -3.7443056e-05 0.001516609 4.4021366e-05 1.7899969e-05 -0.0014777916 0.0014685817 -0.0005946675 -0.0007384989 -0.0013249432 -9.2353235e-05 0.0013046127 -0.0005850386 0.0015321167 0.00061671465 0.0013076217 -0.0015125296 -0.00026141078 -0.001194122 0.00066660414 -0.000816242 -0.0016768053 -0.0016690166 7.858065e-05 0.00013863985 0.000374494 -0.0017274987 0.0012538821 0.0009719303 -0.0016447192 -0.000510363 7.308608e-05 -0.0010978215 -0.0011495417
وی -0.0007762283 0.0004116048 0.001019403 -0.00016883042 0.0015559895 0.0012845814 5.5978082e-05 7.018107e-05 -0.0012110565 0.001603671 0.00061303267 -0.0013160744 -0.0011428682 0.0011065508 -0.0009996188 0.00024342987 0.00039939868 0.0012131927 -0.0011598779 0.0009344279 -0.00051413546 -0.00026371932 -0.00065752945 -0.00036481014 -0.00020101992 -0.0014069111 -0.00012793716 0.0010409801 0.00035658965 -0.0010381219 -0.00067613996 -0.00062986603 0.0007870198 0.0008216385 -0.00038938437 0.0016187084 -0.00095699524 0.0010282397 -0.0015896304 0.001093127 0.00035965125 0.0015807974 -0.00033814617 -0.00058446964 1.4325089e-05 5.9887072e-05 -0.0008294455 0.0014350499 -0.0012216257 -0.00087547675 -0.00061058684 -0.0013612668 -0.0010007808 -0.0014480463 0.00072734745 -0.000325492 -0.00082912063 -0.0010395992 0.0007045726 0.00025532875 -0.0013074855 -0.0007502406 0.0010298247 0.0010759752 -0.00025570157 -0.0016319526 -0.00039761176 0.0005779136 0.00028557377 -0.0014639837 -0.0015856778 0.0008858538 -0.00023858296 -0.0013312221 0.00059052533 0.00021771886 -0.0012202869 -0.000913069 0.00021510573 0.00037039805 0.0010926328 0.00073911826 0.00038610818 0.00055758643 -0.0011236387 0.00018739332 0.0010687545 0.0011755847 0.0011288384 -0.0013526462 -0.0011995852 0.00014389592 0.0009826462 0.0009446351 -0.000656685 -0.0007289531 -0.0013353156 -0.00026522912 -0.00013300471 0.00056557235 -6.157356e-05 0.0014689702 0.00038379015 -0.0009853458 -0.00044627226 -0.00020160944 0.0017077455 -0.0016048885 -0.0014709941 0.0011479008 -0.0010446664 -0.0010718403 -0.0015624568 -0.0013634078 0.0014291987 5.056956e-05 -0.00021376694 -0.0013924903 -0.0006192297 0.0009213335 -0.0006646898 0.0011994843 0.0007983558 0.0014685178 -0.00085135904 -7.02728e-05 -0.0007777989 0.0011910419 0.0012936818 -0.00047122082 -0.00037751452 -0.0003366535 -0.0014842068 -0.00011522779 -0.0013856986 4.3736694e-05 -0.0013300169 0.0011792145 0.00038723878 -0.000673862 -0.0009171904 0.0006018163 6.601676e-05 -0.0012481121 0.0016215924 0.000116624484 0.0009825483 3.7078993e-05 -0.0001644065 -0.00012183441 0.001058523 0.000560457 -0.0016575194 -0.00074098323 -0.0014696218 0.0013568236 -0.00094008975 0.00073666713 -0.0012942624 -0.0012676668 -0.00096306135 0.0013581554 0.00090620626 0.0008988914 -0.00037437383 -0.0002525634 0.0011197742 -0.0008899877 0.0014484985 0.0015450085 0.0005796505 0.0005930654 -0.0014607512 0.0010725593 -0.0003123225 -0.0009873087 0.0005731897 4.6417783e-05 -4.7137408e-05 0.0005524176 -0.0006242446 -0.0015332573 -0.0015824051 -0.00041831596 0.00076081976 0.00038447877 0.00010038144 0.0010750147 -0.0005688627 -0.00040940562 0.00063005113 -0.0011473345 -0.000526978 0.0005338526 0.00044847513 0.000454323 -0.0013769773 -0.0011409965 0.00016688561 0.0016830692 -0.0012952564 -0.0008293859 0.00034557356 0.0011858812 -0.00031803045 0.00020129816 -0.000112868285 -0.0016326112 -0.00065918075 -0.0007309789 0.0013614809 -0.0011101739 -0.0007784384 0.00065948634 0.00030061035 0.0016122439 -0.00067368307 0.0009599855 0.0004866517 -0.0015677508 -0.0012039546 0.00011719852 0.0015139154 -0.0008042578 0.00019573786 0.0006146796 0.0005684269 0.0014987219 0.0010506101 -0.0013793577 -0.00015896258 -0.0014222679 0.0012562306 0.00096012634 -0.0015187694 -0.00021128576 0.0014257644 -0.00093619974 0.0012312195 -0.0008665209 0.0006522827 -0.0008935461 0.0003541763 -0.0011053007 -0.00010052156 0.00163071 0.0010777623 0.0008130403 0.00040492244 -0.0009910079 -0.00162363 0.0009287589 -0.0015148326 -0.00043306616 -0.0013569696 0.0007913596 0.0009359167 0.00087716023 -0.00023858785 0.0017304332 0.0004519961 0.0016147621 0.0016409318 -0.00026839794 0.00043877034 0.0007601823 -2.605469e-05 -0.0002396343 0.001395834 -0.00023357851 -0.0007257419 -0.001078277 8.4643696e-05 -4.3898617e-05 0.0009099737 -0.00018358813 -0.00074584316 0.0015789507 0.0006899849 0.00063870626 -0.0009434958 0.0010397357 -0.0012774728 -0.0009836666 -0.0012384565 0.0008599171 -0.00027712085 -0.0015886219 0.0014180144 -0.0015425823 0.00016446908 -0.0005809323 0.0012577458 -0.0008926198 -0.0015305636 0.00090646785 0.0012886632 -0.0015383812 0.00068090163 -0.0013129059
